svm_type c_svc
kernel_type linear
nr_class 8
total_sv 1626
rho -0.9876664933345126 0.042641188931124625 -0.9946549957810361 -0.4947511210559794 0.8480167979707313 0.8335033162326507 -0.8810690033572885 0.9658569236903185 0.31715447471326447 0.9599927968856576 0.981693839245392 0.9875758669805612 0.9492695912261333 -0.9716464951893686 -0.6239622460041225 0.7847239162558782 0.8780186076272147 -0.8912859869657612 0.9732569144778669 0.9897978624780265 0.988211911354255 0.9361240504252714 0.9552257514726598 0.9077052977474398 -0.1346656637093715 0.5266521418025593 -0.8979751956358228 -0.984864760879665
label 0 2 3 5 4 7 6 1
nr_sv 157 92 288 98 179 273 248 291
SV
0.0 0.0 0.0 0.6772692593950471 0.0 0.0 0.0 18:0.02040816326530612 25:0.2222222222222222 28:0.08108108108108109 33:0.019801980198019802 36:0.05172413793103448 63:0.0625 66:0.011904761904761904 94:0.02564102564102564 105:0.02727272727272727 107:0.14285714285714285 111:0.017857142857142856 119:0.050724637681159424 124:0.06451612903225806 130:0.015748031496062992 156:0.021660649819494584 183:0.1 189:0.4 198:0.038461538461538464 199:0.07692307692307693 205:0.11578947368421053 221:0.04819277108433735 222:0.008968609865470852 251:0.015384615384615385 260:0.017391304347826087 265:0.0410958904109589 268:0.5 271:0.03571428571428571 290:0.005714285714285714 305:0.034482758620689655 316:0.008130081300813009 327:0.02197802197802198 328:0.017094017094017096 337:0.007751937984496124 341:1.0 357:0.0196078431372549 371:0.25 378:0.0136986301369863 379:0.014084507042253521 391:0.05084745762711865 402:0.0625 409:0.0049504950495049506 413:0.043478260869565216 414:0.022900763358778626 416:0.07058823529411765 422:0.009933774834437087 429:0.07142857142857142 445:0.16666666666666666 447:0.0125 455:0.09090909090909091 462:0.043478260869565216 471:0.2857142857142857 488:0.008403361344537815 495:0.023255813953488372 496:0.014736842105263158 
1.0 0.0 0.0 0.0 0.0 0.0 0.0 21:0.005681818181818182 23:0.05172413793103448 36:0.08620689655172414 54:0.11610486891385768 57:0.21897810218978103 66:0.011904761904761904 67:0.00847457627118644 70:0.011627906976744186 73:0.07142857142857142 78:0.42857142857142855 94:0.02564102564102564 105:0.01818181818181818 107:0.14285714285714285 124:0.22580645161290322 130:0.031496062992125984 151:0.011904761904761904 156:0.04332129963898917 162:0.022727272727272728 183:0.1 189:0.2 198:0.038461538461538464 199:0.07692307692307693 202:0.02 219:0.015873015873015872 221:0.024096385542168676 222:0.004484304932735426 232:0.3076923076923077 237:0.13333333333333333 252:0.02 260:0.008695652173913044 263:0.005291005291005291 271:0.03571428571428571 292:0.023255813953488372 314:0.14285714285714285 337:0.031007751937984496 341:1.0 350:0.125 371:0.25 379:0.014084507042253521 391:0.01694915254237288 401:0.01639344262295082 402:0.0625 409:0.0049504950495049506 413:0.021739130434782608 414:0.015267175572519083 416:0.047058823529411764 422:0.0033112582781456954 424:0.008849557522123894 429:0.07142857142857142 434:0.024390243902439025 445:0.16666666666666666 462:0.043478260869565216 471:0.2857142857142857 478:0.375 496:0.016842105263157894 500:0.5 
0.0 0.0 0.0 0.0 1.0 0.5681747421510468 0.0 18:0.02040816326530612 21:0.005681818181818182 78:0.07142857142857142 80:0.025423728813559324 88:0.00980392156862745 94:0.02564102564102564 111:0.017857142857142856 130:0.007874015748031496 147:0.02631578947368421 155:0.02040816326530612 198:0.038461538461538464 202:0.02 219:0.015873015873015872 221:0.012048192771084338 241:1.0 257:0.08695652173913043 261:0.008928571428571428 308:0.01098901098901099 343:0.020833333333333332 350:0.125 365:0.01639344262295082 403:0.023255813953488372 409:0.0049504950495049506 424:0.008849557522123894 
0.0 0.8945430425427245 0.0 0.0 0.5953116309666461 1.0 0.0 28:0.02702702702702703 54:0.011235955056179775 69:0.025 94:0.02564102564102564 116:0.047619047619047616 156:0.007220216606498195 198:0.038461538461538464 205:0.042105263157894736 221:0.012048192771084338 222:0.004484304932735426 241:1.0 321:0.023255813953488372 350:0.125 361:0.04838709677419355 397:0.07142857142857142 403:0.023255813953488372 414:0.007633587786259542 
1.0 0.0 0.0 0.0 0.0 0.0 0.0 18:0.02040816326530612 23:0.02586206896551724 28:0.2702702702702703 30:0.020833333333333332 34:0.056338028169014086 36:0.05172413793103448 41:0.04477611940298507 43:0.08695652173913043 49:0.011904761904761904 52:0.04225352112676056 54:0.02247191011235955 67:0.0847457627118644 68:0.013888888888888888 73:0.008928571428571428 74:0.047619047619047616 84:0.12631578947368421 94:0.15384615384615385 105:0.004545454545454545 111:1.0 119:0.014492753623188406 126:0.010869565217391304 130:0.03937007874015748 156:0.0036101083032490976 162:0.022727272727272728 179:0.03571428571428571 198:0.038461538461538464 199:0.07692307692307693 202:0.02 219:0.38095238095238093 221:0.1927710843373494 232:0.07692307692307693 260:0.017391304347826087 263:0.005291005291005291 265:0.0410958904109589 268:0.5 271:0.03571428571428571 275:0.011494252873563218 292:0.13953488372093023 305:0.011494252873563218 327:0.02197802197802198 328:0.23931623931623933 369:0.02127659574468085 371:0.25 379:0.014084507042253521 394:0.14285714285714285 399:0.022222222222222223 402:0.0625 403:0.023255813953488372 409:0.009900990099009901 413:0.043478260869565216 429:0.07142857142857142 462:0.043478260869565216 470:0.003968253968253968 471:0.14285714285714285 472:0.1111111111111111 477:0.022222222222222223 478:0.125 496:0.002105263157894737 
1.0 0.0 1.0 0.0 0.0 0.0 0.0 23:0.08620689655172414 31:0.011904761904761904 33:0.0297029702970297 36:0.034482758620689655 40:0.017094017094017096 55:0.006535947712418301 66:0.011904761904761904 67:0.03389830508474576 73:0.008928571428571428 74:0.0380952380952381 78:0.07142857142857142 79:0.005555555555555556 84:0.010526315789473684 94:0.02564102564102564 95:0.06666666666666667 101:0.043478260869565216 105:0.013636363636363636 119:0.2536231884057971 123:0.015957446808510637 124:0.03225806451612903 130:0.015748031496062992 147:0.15789473684210525 155:0.04081632653061224 156:0.010830324909747292 179:0.03571428571428571 198:0.038461538461538464 199:0.07692307692307693 202:0.04 219:0.4126984126984127 221:0.03614457831325301 222:0.008968609865470852 224:0.027777777777777776 232:0.15384615384615385 235:0.02631578947368421 250:0.016129032258064516 251:0.005128205128205128 253:0.13333333333333333 257:0.06521739130434782 263:0.042328042328042326 265:0.0136986301369863 271:0.03571428571428571 275:0.011494252873563218 305:0.011494252873563218 308:0.01098901098901099 327:0.01098901098901099 328:0.23931623931623933 371:0.25 372:0.02127659574468085 378:0.0136986301369863 379:0.014084507042253521 391:0.01694915254237288 394:0.14285714285714285 401:0.04918032786885246 402:0.0625 403:0.06976744186046512 409:0.0049504950495049506 414:0.007633587786259542 422:0.0016556291390728477 424:0.017699115044247787 429:0.07142857142857142 434:0.024390243902439025 445:0.16666666666666666 462:0.043478260869565216 471:0.2857142857142857 472:0.1111111111111111 478:0.125 488:0.008403361344537815 496:0.002105263157894737 
0.8134717255668394 0.0 0.19838866628966864 0.0 0.0 0.0 0.0 9:0.004761904761904762 16:0.038461538461538464 18:0.04081632653061224 31:0.32142857142857145 34:0.08450704225352113 36:0.13793103448275862 39:0.08955223880597014 40:0.18518518518518517 48:0.06666666666666667 49:0.011904761904761904 52:1.0 57:0.41605839416058393 59:0.018867924528301886 63:0.03125 64:0.010869565217391304 70:0.005813953488372093 78:0.35714285714285715 84:0.08421052631578947 94:0.02564102564102564 95:0.03333333333333333 105:0.00909090909090909 111:0.08928571428571429 147:0.23684210526315788 155:0.24489795918367346 156:0.01444043321299639 179:0.03571428571428571 198:0.038461538461538464 199:0.07692307692307693 205:0.021052631578947368 206:0.2857142857142857 219:0.23809523809523808 257:1.0 260:0.008695652173913044 263:0.005291005291005291 265:0.1232876712328767 271:0.03571428571428571 273:0.11764705882352941 308:0.01098901098901099 314:0.19047619047619047 327:0.01098901098901099 328:0.21367521367521367 337:0.007751937984496124 355:0.00425531914893617 371:0.25 379:0.014084507042253521 394:0.14285714285714285 399:0.011111111111111112 403:0.023255813953488372 413:0.13043478260869565 414:0.007633587786259542 416:0.23529411764705882 424:0.035398230088495575 429:0.07142857142857142 445:0.16666666666666666 462:0.043478260869565216 468:0.006535947712418301 471:0.2857142857142857 472:0.1111111111111111 496:0.00631578947368421 
1.0 0.0 0.3672599719053634 0.0906262027192708 0.0 0.13585463638230758 0.0 5:0.007194244604316547 9:0.004761904761904762 19:0.02631578947368421 36:0.13793103448275862 39:0.05223880597014925 59:0.03773584905660377 62:0.003875968992248062 66:0.005952380952380952 68:0.006944444444444444 78:0.14285714285714285 90:0.4827586206896552 92:0.015873015873015872 94:0.02564102564102564 95:0.1 105:0.022727272727272728 109:0.0053475935828877 116:0.09523809523809523 130:0.047244094488188976 136:0.038461538461538464 147:0.05263157894736842 151:0.011904761904761904 155:0.04081632653061224 156:0.010830324909747292 179:0.07142857142857142 182:0.02564102564102564 183:0.5 198:0.038461538461538464 199:0.07692307692307693 201:0.011904761904761904 202:0.38 209:0.043478260869565216 224:0.1111111111111111 243:0.06666666666666667 257:0.043478260869565216 260:0.02608695652173913 271:0.03571428571428571 273:0.0392156862745098 288:0.08620689655172414 291:0.07692307692307693 296:0.043478260869565216 298:0.047619047619047616 305:0.034482758620689655 306:0.03225806451612903 307:0.012195121951219513 309:0.021052631578947368 314:0.09523809523809523 323:0.1336206896551724 371:0.25 379:0.014084507042253521 384:0.0743801652892562 394:0.14285714285714285 399:0.044444444444444446 402:0.125 403:0.023255813953488372 409:0.0049504950495049506 413:0.021739130434782608 416:0.023529411764705882 429:0.07142857142857142 445:0.16666666666666666 455:0.09090909090909091 458:0.09090909090909091 462:0.043478260869565216 463:0.0625 465:0.015625 471:0.2857142857142857 472:0.1111111111111111 483:0.05555555555555555 496:0.010526315789473684 
1.0 1.0 1.0 1.0 1.0 1.0 0.22880146778202107 9:0.023809523809523808 30:0.020833333333333332 59:0.03773584905660377 62:0.003875968992248062 80:0.00847457627118644 89:0.023255813953488372 94:0.1282051282051282 105:0.04090909090909091 111:0.017857142857142856 119:0.043478260869565216 127:0.012658227848101266 130:0.015748031496062992 131:0.047619047619047616 147:0.02631578947368421 156:0.032490974729241874 179:0.03571428571428571 198:0.038461538461538464 199:0.07692307692307693 205:0.010526315789473684 218:0.0625 219:0.015873015873015872 222:0.004484304932735426 224:0.08333333333333333 226:0.037037037037037035 232:0.07692307692307693 244:0.0196078431372549 249:0.09545454545454546 251:0.010256410256410256 260:0.034782608695652174 265:0.0136986301369863 271:0.03571428571428571 276:0.008620689655172414 280:0.010638297872340425 301:0.08333333333333333 305:0.011494252873563218 321:0.023255813953488372 327:0.01098901098901099 328:0.02564102564102564 355:0.0425531914893617 357:0.0196078431372549 363:0.003952569169960474 369:0.02127659574468085 371:0.25 377:0.04 379:0.014084507042253521 382:0.01818181818181818 391:0.01694915254237288 394:0.14285714285714285 399:0.022222222222222223 403:0.023255813953488372 408:0.04 409:0.01485148514851485 414:0.04580152671755725 416:0.047058823529411764 424:0.008849557522123894 429:0.07142857142857142 434:0.04878048780487805 445:0.16666666666666666 451:0.0625 459:0.030303030303030304 462:0.043478260869565216 463:0.03125 471:0.14285714285714285 472:0.1111111111111111 478:0.125 480:0.011904761904761904 488:0.025210084033613446 495:0.023255813953488372 496:0.031578947368421054 
1.0 1.0 1.0 1.0 1.0 1.0 0.0 28:0.10810810810810811 40:0.03133903133903134 43:0.008695652173913044 48:0.02666666666666667 69:0.0125 74:0.01904761904761905 80:0.03389830508474576 94:0.1282051282051282 95:0.03333333333333333 119:0.036231884057971016 124:0.03225806451612903 159:0.013333333333333334 172:0.03508771929824561 198:0.038461538461538464 199:0.07692307692307693 205:0.042105263157894736 219:0.047619047619047616 222:0.004484304932735426 224:0.027777777777777776 261:0.008928571428571428 263:0.026455026455026454 314:0.047619047619047616 322:0.019230769230769232 327:0.01098901098901099 328:0.06837606837606838 355:0.00851063829787234 363:0.003952569169960474 379:0.014084507042253521 394:0.14285714285714285 402:0.0625 403:0.09302325581395349 414:0.007633587786259542 416:0.058823529411764705 422:0.0016556291390728477 424:0.02654867256637168 434:0.024390243902439025 447:0.025 462:0.043478260869565216 472:0.1111111111111111 
0.5351805017546765 0.0 0.0 0.0 0.0 0.0 0.0 28:0.05405405405405406 43:0.02608695652173913 66:0.005952380952380952 78:0.07142857142857142 94:0.02564102564102564 95:0.03333333333333333 105:0.004545454545454545 109:0.0053475935828877 119:0.014492753623188406 130:0.03937007874015748 147:0.05263157894736842 156:0.01444043321299639 172:0.017543859649122806 179:0.03571428571428571 198:0.038461538461538464 199:0.15384615384615385 219:0.42857142857142855 221:0.04819277108433735 232:0.07692307692307693 237:0.044444444444444446 241:1.0 251:0.010256410256410256 265:0.0684931506849315 267:0.03225806451612903 268:0.5 271:0.03571428571428571 292:0.313953488372093 314:0.047619047619047616 328:0.03418803418803419 337:0.015503875968992248 338:0.4074074074074074 355:0.00425531914893617 371:0.25 378:0.0273972602739726 379:0.014084507042253521 394:0.14285714285714285 402:0.0625 403:0.023255813953488372 407:0.09523809523809523 413:0.021739130434782608 416:0.15294117647058825 429:0.07142857142857142 462:0.08695652173913043 471:0.14285714285714285 496:0.00631578947368421 
0.6154864181336651 0.0 0.0 0.0 0.0 0.0 0.0 15:0.015873015873015872 16:0.19230769230769232 23:0.08620689655172414 31:0.03571428571428571 33:0.06930693069306931 36:0.10344827586206896 45:0.0072992700729927005 47:0.022727272727272728 49:0.011904761904761904 52:0.14084507042253522 55:0.006535947712418301 69:0.075 70:0.005813953488372093 74:0.05714285714285714 78:0.14285714285714285 94:0.02564102564102564 105:0.02727272727272727 111:0.10714285714285714 119:0.021739130434782608 130:0.015748031496062992 131:0.047619047619047616 151:0.047619047619047616 155:0.20408163265306123 156:0.02527075812274368 179:0.03571428571428571 198:0.038461538461538464 199:0.15384615384615385 202:0.02 205:0.021052631578947368 206:0.07142857142857142 216:0.1111111111111111 219:0.19047619047619047 224:0.027777777777777776 232:0.07692307692307693 235:0.02631578947368421 237:0.022222222222222223 241:1.0 251:0.015384615384615385 252:0.14 257:0.10869565217391304 260:0.02608695652173913 263:0.010582010582010581 265:0.0273972602739726 268:0.5 271:0.03571428571428571 292:0.011627906976744186 303:0.041666666666666664 305:0.022988505747126436 306:0.016129032258064516 313:0.06976744186046512 314:0.047619047619047616 328:0.20512820512820512 343:0.020833333333333332 350:0.125 371:0.25 378:0.0136986301369863 379:0.014084507042253521 394:0.14285714285714285 402:0.0625 403:0.023255813953488372 416:0.011764705882352941 422:0.004966887417218543 429:0.07142857142857142 434:0.024390243902439025 462:0.08695652173913043 471:0.14285714285714285 478:0.125 496:0.014736842105263158 
0.6567172507958252 0.0 0.0 0.0 0.0 0.0 0.0 15:0.015873015873015872 23:0.06896551724137931 30:0.041666666666666664 31:0.03571428571428571 33:0.07920792079207921 34:0.014084507042253521 36:0.10344827586206896 39:0.014925373134328358 40:0.002849002849002849 41:0.05970149253731343 43:0.017391304347826087 45:0.021897810218978103 47:0.09090909090909091 48:0.013333333333333334 49:0.011904761904761904 52:0.014084507042253521 54:0.003745318352059925 57:0.029197080291970802 59:0.03773584905660377 63:0.03125 64:0.007246376811594203 66:0.06547619047619048 69:0.2375 70:0.03488372093023256 73:0.0625 74:0.009523809523809525 78:0.07142857142857142 79:0.05 84:0.07368421052631578 105:0.04090909090909091 107:0.14285714285714285 111:0.10714285714285714 119:0.007246376811594203 124:0.16129032258064516 130:0.015748031496062992 147:0.05263157894736842 155:0.02040816326530612 156:0.05415162454873646 162:0.09090909090909091 183:0.1 185:0.15384615384615385 189:0.2 195:0.024154589371980676 198:0.038461538461538464 216:0.3333333333333333 219:0.031746031746031744 222:0.004484304932735426 232:0.07692307692307693 235:0.02631578947368421 237:0.17777777777777778 251:0.015384615384615385 257:0.021739130434782608 260:0.02608695652173913 265:0.0136986301369863 268:0.5 271:0.03571428571428571 292:0.08139534883720931 305:0.011494252873563218 308:0.01098901098901099 314:0.14285714285714285 321:0.046511627906976744 327:0.01098901098901099 328:0.008547008547008548 337:0.015503875968992248 339:0.030303030303030304 341:1.0 344:0.0684931506849315 350:0.625 357:0.0196078431372549 371:0.25 379:0.014084507042253521 394:0.14285714285714285 399:0.011111111111111112 402:0.0625 403:0.023255813953488372 409:0.009900990099009901 413:0.06521739130434782 414:0.16793893129770993 416:0.09411764705882353 424:0.02654867256637168 429:0.07142857142857142 433:0.13043478260869565 434:0.04878048780487805 442:0.022727272727272728 444:0.037037037037037035 445:0.16666666666666666 477:0.1111111111111111 478:0.25 495:0.06976744186046512 496:0.018947368421052633 
1.0 0.0 1.0 0.0 0.0 0.0 0.0 7:0.045454545454545456 23:0.02586206896551724 28:0.02702702702702703 33:0.009900990099009901 36:0.06896551724137931 39:0.007462686567164179 40:0.008547008547008548 42:0.015151515151515152 43:0.017391304347826087 45:0.029197080291970802 47:0.022727272727272728 48:0.08 57:0.0072992700729927005 66:0.005952380952380952 70:0.08139534883720931 72:0.05309734513274336 74:0.13333333333333333 78:0.14285714285714285 79:0.022222222222222223 84:0.031578947368421054 89:0.023255813953488372 105:0.02727272727272727 111:0.07142857142857142 115:0.009523809523809525 119:0.021739130434782608 129:0.06666666666666667 147:0.02631578947368421 151:0.03571428571428571 155:0.02040816326530612 156:0.036101083032490974 159:0.18666666666666668 162:0.022727272727272728 172:0.017543859649122806 183:0.1 189:0.6 198:0.038461538461538464 202:0.04 205:0.29473684210526313 216:0.1111111111111111 219:0.031746031746031744 221:0.27710843373493976 232:0.07692307692307693 242:0.023255813953488372 251:0.020512820512820513 260:0.043478260869565216 263:0.015873015873015872 267:0.06451612903225806 271:0.03571428571428571 305:0.011494252873563218 310:0.1111111111111111 314:0.047619047619047616 327:0.01098901098901099 341:1.0 357:0.0392156862745098 361:0.1774193548387097 371:0.25 379:0.014084507042253521 391:0.01694915254237288 394:0.42857142857142855 399:0.022222222222222223 402:0.0625 413:0.043478260869565216 414:0.007633587786259542 416:0.2235294117647059 422:0.0016556291390728477 429:0.07142857142857142 434:0.07317073170731707 442:0.022727272727272728 445:0.16666666666666666 447:0.0875 467:0.03333333333333333 477:0.044444444444444446 495:0.09302325581395349 496:0.00631578947368421 
1.0 0.0 0.0 0.009637933010117809 0.0 0.0 0.0 2:0.007751937984496124 7:0.045454545454545456 23:0.02586206896551724 36:0.13793103448275862 40:0.011396011396011397 54:0.0299625468164794 55:0.0457516339869281 57:0.021897810218978103 64:0.0036231884057971015 66:0.011904761904761904 70:0.01744186046511628 72:0.10619469026548672 74:0.09523809523809523 78:0.14285714285714285 79:0.011111111111111112 86:0.2 94:0.02564102564102564 95:0.03333333333333333 105:0.01818181818181818 111:0.05357142857142857 119:0.028985507246376812 123:0.005319148936170213 124:0.03225806451612903 129:0.2 133:0.043478260869565216 137:0.009174311926605505 151:0.011904761904761904 155:0.04081632653061224 156:0.021660649819494584 162:0.022727272727272728 183:0.1 189:0.4 198:0.038461538461538464 199:0.07692307692307693 202:0.18 219:0.015873015873015872 221:0.03614457831325301 222:0.004484304932735426 232:0.07692307692307693 237:0.044444444444444446 251:0.010256410256410256 252:0.96 253:0.13333333333333333 260:0.008695652173913044 263:0.015873015873015872 271:0.03571428571428571 292:0.03488372093023256 309:0.010526315789473684 314:0.09523809523809523 326:0.001841620626151013 327:0.06593406593406594 341:1.0 343:0.3541666666666667 350:0.125 371:0.25 392:0.011111111111111112 402:0.1875 403:0.023255813953488372 409:0.0049504950495049506 414:0.007633587786259542 416:0.11764705882352941 422:0.008278145695364239 424:0.017699115044247787 429:0.07142857142857142 441:0.02702702702702703 444:0.037037037037037035 445:0.16666666666666666 447:0.0125 462:0.043478260869565216 471:0.2857142857142857 477:0.044444444444444446 478:0.125 481:1.0 488:0.008403361344537815 
0.0 0.0 0.0 0.11574590048649175 0.0 0.0 0.0 23:0.10344827586206896 28:0.02702702702702703 31:0.17857142857142858 36:0.017241379310344827 39:0.03731343283582089 40:0.05982905982905983 41:0.014925373134328358 42:0.0021645021645021645 48:0.013333333333333334 49:0.05952380952380952 52:0.014084507042253521 54:0.003745318352059925 64:0.021739130434782608 66:0.05952380952380952 74:0.009523809523809525 78:0.14285714285714285 79:0.005555555555555556 84:0.021052631578947368 89:0.023255813953488372 94:0.02564102564102564 105:0.00909090909090909 107:0.14285714285714285 111:0.03571428571428571 119:0.007246376811594203 156:0.01444043321299639 183:0.1 189:0.4 195:0.004830917874396135 198:0.038461538461538464 199:0.07692307692307693 205:0.1368421052631579 206:0.07142857142857142 219:0.015873015873015872 221:0.024096385542168676 232:0.07692307692307693 235:0.02631578947368421 254:0.010416666666666666 263:0.021164021164021163 265:0.0410958904109589 271:0.03571428571428571 273:0.0196078431372549 286:0.023255813953488372 292:0.023255813953488372 310:0.05555555555555555 327:0.01098901098901099 328:0.02564102564102564 337:0.023255813953488372 338:0.012345679012345678 341:1.0 344:0.0958904109589041 371:0.25 391:0.05084745762711865 402:0.0625 414:0.030534351145038167 416:0.10588235294117647 424:0.008849557522123894 429:0.07142857142857142 435:1.0 445:0.16666666666666666 447:0.0125 462:0.043478260869565216 471:0.2857142857142857 472:0.1111111111111111 478:0.125 488:0.17647058823529413 495:0.023255813953488372 496:0.014736842105263158 
0.42252410793905343 0.0 0.11517286813596124 0.0 0.0 0.0 0.0 9:0.03333333333333333 15:0.031746031746031744 31:0.023809523809523808 33:0.009900990099009901 36:0.05172413793103448 40:0.002849002849002849 41:0.029850746268656716 42:0.0021645021645021645 43:0.008695652173913044 45:0.0072992700729927005 47:0.022727272727272728 48:0.013333333333333334 49:0.011904761904761904 54:0.003745318352059925 55:0.006535947712418301 57:0.029197080291970802 59:0.018867924528301886 64:0.0036231884057971015 66:0.011904761904761904 67:0.03389830508474576 73:0.125 74:0.06666666666666667 78:0.07142857142857142 94:0.02564102564102564 105:0.02727272727272727 111:0.017857142857142856 119:0.043478260869565216 124:0.03225806451612903 133:0.043478260869565216 151:0.011904761904761904 156:0.018050541516245487 162:0.045454545454545456 183:0.1 185:0.07692307692307693 187:0.5 189:0.6 198:0.038461538461538464 199:0.07692307692307693 202:0.04 206:0.07142857142857142 219:0.047619047619047616 221:0.6144578313253012 232:0.07692307692307693 235:0.02631578947368421 251:0.015384615384615385 261:0.008928571428571428 263:0.037037037037037035 265:0.0410958904109589 271:0.03571428571428571 303:0.041666666666666664 305:0.011494252873563218 314:0.19047619047619047 316:0.13821138211382114 336:0.007633587786259542 337:0.007751937984496124 341:1.0 371:0.25 372:0.02127659574468085 375:0.2 391:0.06779661016949153 402:0.0625 409:0.009900990099009901 414:0.007633587786259542 416:0.047058823529411764 422:0.013245033112582781 429:0.07142857142857142 434:0.024390243902439025 445:0.16666666666666666 447:0.05 462:0.043478260869565216 471:0.2857142857142857 472:0.1111111111111111 478:0.25 495:0.023255813953488372 496:0.010526315789473684 
0.0 0.0 0.76674831517801 0.0 0.0 0.0 0.0 7:0.045454545454545456 31:0.03571428571428571 34:0.028169014084507043 36:0.05172413793103448 41:0.13432835820895522 42:0.0021645021645021645 47:0.045454545454545456 48:0.05333333333333334 52:0.014084507042253521 54:0.03745318352059925 55:0.0196078431372549 64:0.007246376811594203 66:0.017857142857142856 69:0.0375 89:0.046511627906976744 94:0.02564102564102564 105:0.022727272727272728 107:0.14285714285714285 119:0.007246376811594203 130:0.007874015748031496 147:0.02631578947368421 156:0.039711191335740074 183:0.1 189:0.4 194:0.11428571428571428 198:0.038461538461538464 199:0.07692307692307693 202:0.02 205:0.021052631578947368 216:0.1111111111111111 219:0.047619047619047616 221:0.024096385542168676 222:0.008968609865470852 235:0.02631578947368421 237:0.022222222222222223 252:0.02 260:0.017391304347826087 265:0.2054794520547945 266:0.007462686567164179 271:0.03571428571428571 275:0.011494252873563218 286:0.023255813953488372 305:0.011494252873563218 308:0.01098901098901099 314:0.14285714285714285 328:0.008547008547008548 341:1.0 344:0.0136986301369863 355:0.00851063829787234 357:0.0392156862745098 363:0.003952569169960474 371:0.25 402:0.0625 414:0.06870229007633588 416:0.10588235294117647 418:0.07142857142857142 424:0.008849557522123894 429:0.07142857142857142 434:0.0975609756097561 437:0.07692307692307693 445:0.16666666666666666 455:0.09090909090909091 457:0.021739130434782608 462:0.043478260869565216 465:0.015625 467:0.11666666666666667 471:0.2857142857142857 472:0.2222222222222222 488:0.08403361344537816 495:0.06976744186046512 496:0.010526315789473684 
0.0 0.9897183986438465 -0.0 1.0 1.0 1.0 0.27911764331145106 5:0.007194244604316547 9:0.009523809523809525 29:0.08333333333333333 119:0.007246376811594203 123:0.0425531914893617 189:0.2 198:0.038461538461538464 222:0.008968609865470852 224:0.1111111111111111 303:0.041666666666666664 341:1.0 426:0.016260162601626018 442:0.11363636363636363 448:0.08333333333333333 473:0.03225806451612903 
0.06481709772918283 0.0 0.0 0.0 0.0 0.0 0.0 23:0.02586206896551724 31:0.03571428571428571 34:0.04225352112676056 36:0.034482758620689655 40:0.002849002849002849 43:0.05217391304347826 48:0.10666666666666667 49:0.07142857142857142 55:0.0196078431372549 64:0.018115942028985508 66:0.07738095238095238 67:0.025423728813559324 69:0.0875 73:0.026785714285714284 74:0.11428571428571428 78:0.5 79:0.022222222222222223 84:0.17894736842105263 89:0.023255813953488372 94:0.02564102564102564 105:0.031818181818181815 107:0.14285714285714285 111:0.16071428571428573 124:0.03225806451612903 130:0.015748031496062992 133:0.043478260869565216 155:0.061224489795918366 156:0.02527075812274368 162:0.022727272727272728 183:0.1 189:0.4 198:0.038461538461538464 199:0.07692307692307693 202:0.02 216:0.1111111111111111 219:0.031746031746031744 221:0.012048192771084338 237:0.06666666666666667 251:0.005128205128205128 257:0.10869565217391304 260:0.008695652173913044 265:0.0958904109589041 271:0.03571428571428571 292:0.12790697674418605 296:0.043478260869565216 314:0.047619047619047616 321:0.023255813953488372 327:0.03296703296703297 337:0.023255813953488372 341:1.0 344:0.0136986301369863 350:0.25 357:0.0196078431372549 371:0.25 375:0.2 391:0.03389830508474576 402:0.125 414:0.05343511450381679 416:0.12941176470588237 418:0.07142857142857142 422:0.0016556291390728477 429:0.07142857142857142 433:0.043478260869565216 434:0.04878048780487805 445:0.16666666666666666 462:0.043478260869565216 471:0.2857142857142857 472:0.1111111111111111 477:0.06666666666666667 478:0.125 496:0.008421052631578947 498:0.012738853503184714 
1.0 0.0 0.0 0.0 0.0 0.0 0.0 7:0.045454545454545456 18:0.02040816326530612 30:0.020833333333333332 36:0.2413793103448276 42:0.023809523809523808 43:0.2 45:0.0072992700729927005 47:0.045454545454545456 57:0.014598540145985401 59:0.018867924528301886 62:0.003875968992248062 66:0.011904761904761904 67:0.00847457627118644 68:0.006944444444444444 70:0.09883720930232558 73:0.125 74:0.10476190476190476 89:0.023255813953488372 94:0.02564102564102564 105:0.00909090909090909 119:0.007246376811594203 124:0.03225806451612903 156:0.01444043321299639 162:0.022727272727272728 183:0.1 185:0.07692307692307693 189:0.4 198:0.11538461538461539 199:0.07692307692307693 202:0.02 206:0.2857142857142857 219:0.031746031746031744 221:0.1686746987951807 222:0.004484304932735426 232:0.07692307692307693 235:0.02631578947368421 251:0.020512820512820513 260:0.008695652173913044 271:0.03571428571428571 305:0.011494252873563218 309:0.010526315789473684 314:0.19047619047619047 321:0.023255813953488372 327:0.06593406593406594 337:0.023255813953488372 338:0.012345679012345678 341:1.0 344:0.0136986301369863 350:0.625 369:0.02127659574468085 371:0.25 394:0.14285714285714285 399:0.011111111111111112 402:0.1875 403:0.023255813953488372 414:0.03816793893129771 416:0.11764705882352941 418:0.07142857142857142 429:0.07142857142857142 433:0.043478260869565216 445:0.16666666666666666 455:0.09090909090909091 462:0.043478260869565216 463:0.03125 471:0.2857142857142857 472:0.1111111111111111 475:0.125 478:0.25 495:0.06976744186046512 496:0.016842105263157894 
0.0 0.0 0.12848254716951005 0.17855847178649806 0.0 0.0 0.0 7:0.09090909090909091 23:0.0603448275862069 28:0.10810810810810811 30:0.041666666666666664 36:0.06896551724137931 42:0.0021645021645021645 43:0.05217391304347826 47:0.022727272727272728 48:0.02666666666666667 49:0.011904761904761904 54:0.00749063670411985 55:0.1830065359477124 57:0.0072992700729927005 64:0.0036231884057971015 66:0.005952380952380952 67:0.00847457627118644 69:0.175 70:0.011627906976744186 74:0.009523809523809525 78:0.14285714285714285 79:0.005555555555555556 94:0.02564102564102564 105:0.031818181818181815 107:0.14285714285714285 110:0.008928571428571428 111:0.017857142857142856 133:0.043478260869565216 156:0.018050541516245487 162:0.022727272727272728 183:0.1 187:0.5 189:0.2 194:0.2571428571428571 195:0.004830917874396135 198:0.038461538461538464 199:0.07692307692307693 202:0.04 216:0.1111111111111111 219:0.015873015873015872 221:0.012048192771084338 251:0.005128205128205128 260:0.017391304347826087 271:0.07142857142857142 291:0.07692307692307693 305:0.034482758620689655 314:0.09523809523809523 327:0.01098901098901099 338:0.20987654320987653 341:1.0 343:0.020833333333333332 344:0.0136986301369863 371:0.25 391:0.03389830508474576 401:0.01639344262295082 402:0.0625 413:0.021739130434782608 416:0.3176470588235294 422:0.0016556291390728477 429:0.07142857142857142 434:0.0975609756097561 445:0.16666666666666666 455:0.09090909090909091 462:0.043478260869565216 467:0.03333333333333333 471:0.2857142857142857 472:0.1111111111111111 478:0.125 496:0.008421052631578947 
0.0 0.0 0.0 0.23002517666220582 0.0 0.0 0.0 7:0.045454545454545456 23:0.017241379310344827 28:0.05405405405405406 31:0.023809523809523808 33:0.009900990099009901 34:0.028169014084507043 36:0.06896551724137931 42:0.0021645021645021645 43:0.043478260869565216 52:0.014084507042253521 54:0.003745318352059925 59:0.018867924528301886 66:0.023809523809523808 68:0.006944444444444444 69:0.05 72:0.008849557522123894 73:0.008928571428571428 74:0.02857142857142857 79:0.011111111111111112 84:0.031578947368421054 89:0.06976744186046512 94:0.02564102564102564 105:0.031818181818181815 107:0.14285714285714285 119:0.028985507246376812 130:0.007874015748031496 151:0.011904761904761904 155:0.02040816326530612 156:0.039711191335740074 183:0.1 189:0.2 194:0.11428571428571428 195:0.01932367149758454 198:0.038461538461538464 199:0.07692307692307693 216:0.4444444444444444 219:0.031746031746031744 221:0.03614457831325301 222:0.004484304932735426 251:0.015384615384615385 252:0.06 257:0.021739130434782608 263:0.005291005291005291 265:0.0136986301369863 271:0.03571428571428571 292:0.03488372093023256 305:0.034482758620689655 314:0.09523809523809523 317:0.007575757575757576 327:0.04395604395604396 328:0.05982905982905983 337:0.015503875968992248 341:1.0 344:0.0273972602739726 371:0.25 377:0.04 399:0.022222222222222223 402:0.0625 409:0.01485148514851485 413:0.13043478260869565 416:0.21176470588235294 427:0.058823529411764705 429:0.07142857142857142 445:0.16666666666666666 462:0.043478260869565216 469:0.021739130434782608 471:0.2857142857142857 477:0.044444444444444446 479:0.058823529411764705 495:0.046511627906976744 496:0.00631578947368421 
0.0 0.0 0.0 1.0 0.0 0.0 0.0 7:0.045454545454545456 15:0.015873015873015872 23:0.04310344827586207 30:0.020833333333333332 31:0.011904761904761904 36:0.034482758620689655 40:0.008547008547008548 42:0.0021645021645021645 43:0.008695652173913044 48:0.02666666666666667 49:0.011904761904761904 59:0.018867924528301886 62:0.003875968992248062 66:0.005952380952380952 69:0.0375 70:0.01744186046511628 72:0.008849557522123894 94:0.02564102564102564 105:0.03636363636363636 111:0.03571428571428571 130:0.007874015748031496 133:0.043478260869565216 147:0.02631578947368421 156:0.02888086642599278 172:0.05263157894736842 183:0.1 189:0.4 194:0.05714285714285714 195:0.00966183574879227 198:0.038461538461538464 199:0.07692307692307693 205:0.010526315789473684 216:0.2222222222222222 219:0.06349206349206349 221:0.2289156626506024 237:0.022222222222222223 251:0.020512820512820513 255:0.047619047619047616 260:0.017391304347826087 263:0.021164021164021163 265:0.0273972602739726 271:0.03571428571428571 292:0.046511627906976744 305:0.04597701149425287 314:0.09523809523809523 327:0.01098901098901099 328:0.017094017094017096 337:0.015503875968992248 338:0.024691358024691357 341:1.0 350:0.125 357:0.0196078431372549 371:0.25 391:0.05084745762711865 399:0.011111111111111112 402:0.0625 414:0.05343511450381679 416:0.12941176470588237 422:0.0016556291390728477 429:0.07142857142857142 437:0.07692307692307693 445:0.16666666666666666 462:0.043478260869565216 471:0.2857142857142857 495:0.046511627906976744 496:0.018947368421052633 
0.0 0.0 0.31812652919804596 0.16303112550846394 0.0 0.0 0.0 7:0.045454545454545456 18:0.02040816326530612 23:0.04310344827586207 31:0.047619047619047616 33:0.009900990099009901 34:0.04225352112676056 36:0.017241379310344827 39:0.014925373134328358 42:0.0021645021645021645 43:0.017391304347826087 48:0.013333333333333334 49:0.023809523809523808 52:0.014084507042253521 54:0.003745318352059925 55:0.006535947712418301 57:0.0364963503649635 64:0.010869565217391304 66:0.017857142857142856 70:0.03488372093023256 72:0.09734513274336283 73:0.044642857142857144 74:0.01904761904761905 78:0.5 84:0.1368421052631579 94:0.02564102564102564 105:0.022727272727272728 111:0.10714285714285714 119:0.10869565217391304 130:0.023622047244094488 156:0.02888086642599278 162:0.022727272727272728 183:0.1 189:0.4 198:0.038461538461538464 199:0.07692307692307693 201:0.011904761904761904 202:0.06 219:0.20634920634920634 237:0.022222222222222223 250:0.016129032258064516 251:0.005128205128205128 271:0.03571428571428571 273:0.0392156862745098 292:0.023255813953488372 305:0.022988505747126436 306:0.08064516129032258 327:0.02197802197802198 337:0.007751937984496124 341:1.0 371:0.25 377:0.04 379:0.014084507042253521 383:0.0125 392:0.03333333333333333 402:0.0625 414:0.015267175572519083 424:0.008849557522123894 429:0.07142857142857142 433:0.043478260869565216 444:0.1111111111111111 445:0.16666666666666666 447:0.3 462:0.043478260869565216 471:0.2857142857142857 472:0.1111111111111111 477:0.17777777777777778 478:0.125 496:0.004210526315789474 
0.0 0.0 0.06079215721810581 0.22797905976061036 0.0 0.0 0.0 7:0.045454545454545456 28:0.02702702702702703 40:0.005698005698005698 45:0.0072992700729927005 47:0.022727272727272728 48:0.02666666666666667 57:0.029197080291970802 69:0.075 70:0.011627906976744186 73:0.017857142857142856 74:0.009523809523809525 78:0.07142857142857142 94:0.02564102564102564 105:0.031818181818181815 107:0.14285714285714285 111:0.30357142857142855 124:0.0967741935483871 130:0.007874015748031496 147:0.05263157894736842 156:0.02888086642599278 162:0.045454545454545456 181:0.018018018018018018 183:0.1 189:0.4 195:0.00966183574879227 198:0.038461538461538464 199:0.07692307692307693 202:0.08 216:0.1111111111111111 221:0.04819277108433735 224:0.027777777777777776 260:0.017391304347826087 263:0.010582010582010581 264:0.002369668246445498 271:0.03571428571428571 292:0.023255813953488372 305:0.022988505747126436 327:0.01098901098901099 337:0.007751937984496124 341:1.0 371:0.25 375:0.2 379:0.014084507042253521 391:0.01694915254237288 399:0.03333333333333333 402:0.0625 403:0.023255813953488372 408:0.04 409:0.009900990099009901 413:0.021739130434782608 414:0.022900763358778626 416:0.08235294117647059 418:0.07142857142857142 429:0.07142857142857142 433:0.08695652173913043 434:0.024390243902439025 445:0.16666666666666666 462:0.043478260869565216 471:0.2857142857142857 
0.0 0.0 0.011481096974081484 0.0 0.0 0.0 0.0 2:0.003875968992248062 7:0.045454545454545456 28:0.05405405405405406 34:0.014084507042253521 36:0.034482758620689655 48:0.22666666666666666 49:0.011904761904761904 54:0.003745318352059925 55:0.0196078431372549 59:0.03773584905660377 64:0.007246376811594203 66:0.023809523809523808 79:0.005555555555555556 89:0.023255813953488372 94:0.05128205128205128 105:0.01818181818181818 107:0.2857142857142857 111:0.07142857142857142 116:0.047619047619047616 123:0.015957446808510637 124:0.03225806451612903 130:0.015748031496062992 147:0.07894736842105263 156:0.02888086642599278 162:0.045454545454545456 183:0.1 189:0.4 195:0.024154589371980676 198:0.038461538461538464 199:0.07692307692307693 202:0.02 224:0.027777777777777776 232:0.07692307692307693 251:0.005128205128205128 252:0.02 254:0.010416666666666666 260:0.008695652173913044 261:0.017857142857142856 262:0.00909090909090909 271:0.03571428571428571 272:0.022727272727272728 305:0.011494252873563218 314:0.23809523809523808 327:0.03296703296703297 337:0.007751937984496124 341:1.0 343:0.0625 344:0.0136986301369863 350:0.125 355:0.00851063829787234 357:0.0196078431372549 371:0.25 375:0.2 379:0.014084507042253521 383:0.0125 391:0.01694915254237288 397:0.21428571428571427 402:0.0625 414:0.03816793893129771 416:0.15294117647058825 422:0.009933774834437087 429:0.07142857142857142 434:0.1951219512195122 444:0.037037037037037035 445:0.16666666666666666 462:0.043478260869565216 469:0.021739130434782608 471:0.2857142857142857 472:0.1111111111111111 475:0.0625 477:0.044444444444444446 478:0.125 479:0.8235294117647058 496:0.018947368421052633 
0.0 0.0 1.0 0.0 0.0 0.0 0.0 28:0.02702702702702703 31:0.05952380952380952 36:0.08620689655172414 40:0.008547008547008548 41:0.029850746268656716 42:0.0021645021645021645 47:0.022727272727272728 48:0.04 52:0.014084507042253521 54:0.003745318352059925 55:0.006535947712418301 58:0.02702702702702703 66:0.011904761904761904 69:0.0375 79:0.011111111111111112 89:0.023255813953488372 94:0.02564102564102564 95:0.06666666666666667 105:0.022727272727272728 107:0.14285714285714285 119:0.007246376811594203 124:0.03225806451612903 130:0.015748031496062992 133:0.043478260869565216 147:0.02631578947368421 156:0.05415162454873646 162:0.022727272727272728 183:0.1 189:0.8 198:0.038461538461538464 199:0.07692307692307693 206:0.07142857142857142 216:0.1111111111111111 219:0.07936507936507936 221:0.012048192771084338 234:0.3253012048192771 235:0.05263157894736842 251:0.020512820512820513 253:0.06666666666666667 260:0.008695652173913044 265:0.0547945205479452 271:0.07142857142857142 286:0.023255813953488372 292:0.011627906976744186 305:0.034482758620689655 309:0.021052631578947368 328:0.008547008547008548 337:0.03875968992248062 341:1.0 350:0.25 357:0.0392156862745098 371:0.25 375:0.2 379:0.014084507042253521 391:0.01694915254237288 402:0.0625 414:0.007633587786259542 416:0.27058823529411763 429:0.07142857142857142 433:0.043478260869565216 434:0.024390243902439025 444:0.037037037037037035 445:0.16666666666666666 462:0.043478260869565216 471:0.2857142857142857 472:0.2222222222222222 495:0.023255813953488372 496:0.01263157894736842 
0.0 0.0 0.24374784667904642 1.0 0.0 0.0 0.0 29:0.08333333333333333 30:0.08333333333333333 36:0.034482758620689655 39:0.014925373134328358 41:0.014925373134328358 42:0.02813852813852814 43:0.28695652173913044 47:0.5681818181818182 49:0.011904761904761904 55:0.006535947712418301 57:0.014598540145985401 64:0.0036231884057971015 66:0.017857142857142856 67:0.01694915254237288 70:0.08139534883720931 72:0.017699115044247787 89:0.023255813953488372 94:0.02564102564102564 105:0.00909090909090909 107:0.14285714285714285 130:0.031496062992125984 156:0.010830324909747292 162:0.045454545454545456 181:0.036036036036036036 183:0.1 189:0.4 198:0.038461538461538464 199:0.07692307692307693 201:0.011904761904761904 222:0.008968609865470852 237:0.044444444444444446 271:0.03571428571428571 305:0.011494252873563218 309:0.010526315789473684 314:0.047619047619047616 326:0.001841620626151013 327:0.04395604395604396 337:0.007751937984496124 341:1.0 344:0.0136986301369863 350:0.125 365:0.01639344262295082 371:0.25 379:0.014084507042253521 383:0.0125 391:0.05084745762711865 398:0.007633587786259542 402:0.0625 409:0.009900990099009901 414:0.09923664122137404 416:0.023529411764705882 429:0.07142857142857142 434:0.07317073170731707 439:0.02564102564102564 445:0.16666666666666666 447:0.0375 455:0.09090909090909091 462:0.043478260869565216 471:0.2857142857142857 496:0.004210526315789474 
0.0 0.0 0.0 1.0 0.0 0.0 0.0 7:0.045454545454545456 31:0.011904761904761904 39:0.007462686567164179 42:0.0021645021645021645 43:0.008695652173913044 47:0.06818181818181818 48:0.02666666666666667 49:0.08333333333333333 54:0.003745318352059925 55:0.006535947712418301 67:0.06779661016949153 69:0.1 70:0.01744186046511628 74:0.2761904761904762 78:0.07142857142857142 79:0.06111111111111111 84:0.17894736842105263 94:0.02564102564102564 105:0.022727272727272728 111:0.017857142857142856 129:0.06666666666666667 147:0.02631578947368421 156:0.02527075812274368 162:0.022727272727272728 183:0.1 185:0.07692307692307693 189:0.4 195:0.028985507246376812 198:0.038461538461538464 199:0.07692307692307693 216:0.1111111111111111 219:0.047619047619047616 221:0.03614457831325301 232:0.07692307692307693 237:0.022222222222222223 251:0.015384615384615385 271:0.03571428571428571 292:0.03488372093023256 305:0.034482758620689655 339:0.12121212121212122 341:1.0 344:0.0273972602739726 371:0.25 375:0.2 379:0.014084507042253521 398:0.007633587786259542 399:0.011111111111111112 402:0.0625 413:0.021739130434782608 414:0.015267175572519083 416:0.07058823529411765 418:0.07142857142857142 429:0.07142857142857142 433:0.043478260869565216 434:0.024390243902439025 445:0.16666666666666666 447:0.0125 455:0.09090909090909091 462:0.043478260869565216 471:0.2857142857142857 495:0.023255813953488372 496:0.00631578947368421 
0.0 0.0 0.24726464901294995 0.0 0.0 0.0 0.0 7:0.09090909090909091 23:0.02586206896551724 31:0.05952380952380952 33:0.06930693069306931 36:0.017241379310344827 41:0.014925373134328358 47:0.022727272727272728 48:0.14666666666666667 49:0.07142857142857142 52:0.028169014084507043 54:0.003745318352059925 55:0.0196078431372549 57:0.072992700729927 59:0.03773584905660377 66:0.017857142857142856 69:0.1 72:0.04424778761061947 73:0.008928571428571428 74:0.009523809523809525 78:0.21428571428571427 89:0.023255813953488372 94:0.05128205128205128 105:0.013636363636363636 111:0.5357142857142857 124:0.03225806451612903 130:0.007874015748031496 133:0.08695652173913043 156:0.04693140794223827 162:0.045454545454545456 183:0.1 189:0.4 195:0.04830917874396135 198:0.038461538461538464 199:0.07692307692307693 219:0.19047619047619047 221:0.03614457831325301 232:0.07692307692307693 235:0.02631578947368421 237:0.044444444444444446 251:0.02564102564102564 257:0.06521739130434782 263:0.005291005291005291 271:0.03571428571428571 292:0.05813953488372093 305:0.011494252873563218 314:0.09523809523809523 327:0.02197802197802198 337:0.023255813953488372 339:0.06060606060606061 341:1.0 344:0.0136986301369863 357:0.0196078431372549 371:0.25 375:0.4 379:0.014084507042253521 391:0.03389830508474576 402:0.3125 403:0.023255813953488372 409:0.0049504950495049506 413:0.043478260869565216 414:0.015267175572519083 416:0.09411764705882353 418:0.07142857142857142 429:0.07142857142857142 433:0.08695652173913043 437:0.07692307692307693 445:0.16666666666666666 462:0.043478260869565216 469:0.021739130434782608 471:0.2857142857142857 477:0.022222222222222223 478:0.125 495:0.09302325581395349 496:0.02526315789473684 
0.05729894350045411 0.0 0.11392166203360475 0.07572913908253703 0.0 0.0 0.0 23:0.25 28:0.32432432432432434 41:0.014925373134328358 58:0.02702702702702703 60:1.0 64:0.010869565217391304 73:0.03571428571428571 94:0.02564102564102564 95:0.03333333333333333 101:0.043478260869565216 105:0.045454545454545456 111:0.017857142857142856 119:0.007246376811594203 124:0.03225806451612903 130:0.05511811023622047 147:0.02631578947368421 151:0.011904761904761904 155:0.02040816326530612 156:0.05415162454873646 162:0.09090909090909091 183:0.1 187:0.5 189:0.8 195:0.2608695652173913 198:0.038461538461538464 199:0.07692307692307693 202:0.02 219:0.06349206349206349 251:0.005128205128205128 252:0.02 257:0.043478260869565216 260:0.02608695652173913 263:0.005291005291005291 265:0.0821917808219178 267:0.03225806451612903 271:0.03571428571428571 275:0.16091954022988506 292:0.046511627906976744 305:0.022988505747126436 309:0.010526315789473684 314:0.047619047619047616 327:0.12087912087912088 339:0.7272727272727273 341:1.0 361:0.12903225806451613 369:0.02127659574468085 371:0.25 379:0.014084507042253521 382:0.01818181818181818 391:0.01694915254237288 401:0.03278688524590164 402:0.0625 406:0.013157894736842105 409:0.0049504950495049506 413:0.021739130434782608 414:0.030534351145038167 416:0.03529411764705882 424:0.035398230088495575 426:0.008130081300813009 429:0.07142857142857142 434:0.04878048780487805 445:0.16666666666666666 455:0.36363636363636365 462:0.043478260869565216 469:0.021739130434782608 471:0.2857142857142857 477:0.13333333333333333 478:0.125 488:0.025210084033613446 495:0.023255813953488372 496:0.01263157894736842 
0.7866608568254441 0.0 0.0 0.0 0.0 0.0 0.0 7:0.045454545454545456 9:0.06190476190476191 13:0.013157894736842105 23:0.05172413793103448 30:0.020833333333333332 31:0.023809523809523808 36:0.034482758620689655 39:0.022388059701492536 40:0.005698005698005698 42:0.0021645021645021645 45:0.0072992700729927005 47:0.022727272727272728 52:0.014084507042253521 54:0.003745318352059925 57:0.0072992700729927005 61:0.01639344262295082 62:0.007751937984496124 66:0.005952380952380952 89:0.023255813953488372 94:0.02564102564102564 105:0.03636363636363636 111:0.017857142857142856 119:0.5507246376811594 120:0.014492753623188406 123:0.015957446808510637 130:0.047244094488188976 133:0.043478260869565216 139:0.034482758620689655 140:0.02631578947368421 154:0.041666666666666664 156:0.010830324909747292 183:0.1 189:0.4 198:0.038461538461538464 199:0.07692307692307693 201:0.011904761904761904 206:0.07142857142857142 232:0.07692307692307693 234:0.3132530120481928 237:0.044444444444444446 251:0.005128205128205128 252:0.02 260:0.008695652173913044 261:0.017857142857142856 262:0.00909090909090909 268:0.5 271:0.03571428571428571 281:0.01639344262295082 303:0.25 310:0.05555555555555555 314:0.09523809523809523 322:0.019230769230769232 327:0.06593406593406594 341:1.0 343:0.1875 363:0.003952569169960474 365:0.01639344262295082 371:0.25 372:0.3404255319148936 379:0.014084507042253521 384:0.02066115702479339 391:0.1016949152542373 398:0.007633587786259542 402:0.125 409:0.009900990099009901 416:0.03529411764705882 418:0.5 422:0.004966887417218543 426:0.04065040650406504 429:0.07142857142857142 433:0.043478260869565216 445:0.16666666666666666 447:0.05 462:0.043478260869565216 469:0.043478260869565216 471:0.2857142857142857 472:0.1111111111111111 477:0.06666666666666667 478:0.125 480:0.005952380952380952 
0.0 1.0 0.0 0.8619277777949171 1.0 1.0 0.0 23:0.017241379310344827 36:0.017241379310344827 48:0.02666666666666667 59:0.018867924528301886 69:0.0125 78:0.07142857142857142 94:0.02564102564102564 124:0.03225806451612903 130:0.023622047244094488 173:0.027777777777777776 194:0.14285714285714285 198:0.038461538461538464 205:0.031578947368421054 219:0.015873015873015872 221:0.060240963855421686 224:0.08333333333333333 261:0.026785714285714284 265:0.0136986301369863 267:0.03225806451612903 314:0.09523809523809523 339:0.030303030303030304 344:0.0136986301369863 355:0.00425531914893617 403:0.046511627906976744 413:0.021739130434782608 414:0.11450381679389313 416:0.047058823529411764 434:0.12195121951219512 467:0.2 470:0.003968253968253968 495:0.023255813953488372 
0.0 0.0 0.0 0.48822959909193714 0.0 0.0 0.0 7:0.045454545454545456 23:0.034482758620689655 31:0.023809523809523808 33:0.0594059405940594 34:0.056338028169014086 36:0.034482758620689655 40:0.017094017094017096 41:0.19402985074626866 45:0.0072992700729927005 47:0.06818181818181818 54:0.06741573033707865 55:0.12418300653594772 57:0.051094890510948905 63:0.03125 64:0.007246376811594203 66:0.011904761904761904 67:0.03389830508474576 72:0.035398230088495575 74:0.06666666666666667 84:0.11578947368421053 94:0.02564102564102564 105:0.022727272727272728 123:0.005319148936170213 130:0.015748031496062992 156:0.02527075812274368 181:0.009009009009009009 183:0.1 189:0.4 198:0.038461538461538464 199:0.07692307692307693 202:0.02 216:0.1111111111111111 219:0.031746031746031744 221:0.18072289156626506 237:0.022222222222222223 251:0.015384615384615385 257:0.021739130434782608 260:0.008695652173913044 265:0.1095890410958904 271:0.03571428571428571 292:0.03488372093023256 305:0.011494252873563218 327:0.02197802197802198 341:1.0 344:0.3835616438356164 357:0.0196078431372549 371:0.25 379:0.014084507042253521 391:0.05084745762711865 399:0.011111111111111112 402:0.0625 413:0.15217391304347827 416:0.15294117647058825 429:0.07142857142857142 445:0.16666666666666666 462:0.043478260869565216 471:0.2857142857142857 478:0.125 496:0.010526315789473684 
0.4464992996883279 0.0 0.0 0.0 0.0 0.0 0.0 15:0.047619047619047616 18:0.02040816326530612 23:0.008620689655172414 28:0.24324324324324326 31:0.011904761904761904 33:0.019801980198019802 42:0.006493506493506494 45:0.13138686131386862 47:0.022727272727272728 52:0.07042253521126761 54:0.0149812734082397 55:0.006535947712418301 57:0.014598540145985401 64:0.014492753623188406 66:0.02976190476190476 69:0.225 74:0.3047619047619048 78:0.14285714285714285 84:0.06315789473684211 94:0.1282051282051282 95:0.03333333333333333 105:0.01818181818181818 111:0.017857142857142856 119:0.007246376811594203 123:0.005319148936170213 124:0.06451612903225806 147:0.13157894736842105 156:0.02888086642599278 162:0.045454545454545456 183:0.1 198:0.038461538461538464 199:0.07692307692307693 202:0.02 211:0.011235955056179775 219:0.09523809523809523 232:0.07692307692307693 251:0.010256410256410256 260:0.017391304347826087 266:0.007462686567164179 271:0.03571428571428571 292:0.05813953488372093 305:0.011494252873563218 328:0.2905982905982906 342:0.08333333333333333 344:0.2191780821917808 350:0.25 355:0.00425531914893617 391:0.01694915254237288 399:0.011111111111111112 402:0.125 403:0.06976744186046512 414:0.05343511450381679 418:0.07142857142857142 433:0.043478260869565216 434:0.5609756097560976 445:0.16666666666666666 455:0.09090909090909091 462:0.043478260869565216 471:0.14285714285714285 478:0.125 496:0.004210526315789474 
0.043806404798315206 0.0 0.19627476959014506 0.0 0.0 0.0 0.0 4:0.08333333333333333 18:0.061224489795918366 31:0.10714285714285714 33:0.07920792079207921 34:0.16901408450704225 36:0.017241379310344827 39:0.07462686567164178 40:0.039886039886039885 43:0.008695652173913044 45:0.06569343065693431 49:0.011904761904761904 55:0.006535947712418301 57:0.0072992700729927005 64:0.007246376811594203 78:0.07142857142857142 79:0.005555555555555556 84:0.05263157894736842 86:0.1 88:0.00980392156862745 89:0.06976744186046512 90:0.034482758620689655 94:0.02564102564102564 105:0.022727272727272728 107:0.14285714285714285 111:0.14285714285714285 115:0.009523809523809525 119:0.07246376811594203 123:0.026595744680851064 124:0.03225806451612903 155:0.32653061224489793 156:0.018050541516245487 183:0.1 198:0.038461538461538464 199:0.07692307692307693 200:0.01639344262295082 202:0.02 205:0.07368421052631578 219:0.07936507936507936 221:0.4939759036144578 224:0.16666666666666666 251:0.010256410256410256 252:0.08 260:0.017391304347826087 263:0.042328042328042326 265:0.5205479452054794 267:0.03225806451612903 271:0.03571428571428571 273:0.0196078431372549 291:0.07692307692307693 292:0.046511627906976744 298:0.047619047619047616 305:0.011494252873563218 306:0.03225806451612903 314:0.09523809523809523 320:0.038461538461538464 342:0.08333333333333333 350:0.25 361:0.1774193548387097 363:0.003952569169960474 391:0.01694915254237288 402:0.0625 413:0.021739130434782608 414:0.022900763358778626 416:0.11764705882352941 418:0.07142857142857142 434:0.0975609756097561 445:0.16666666666666666 455:0.09090909090909091 462:0.043478260869565216 467:0.16666666666666666 471:0.14285714285714285 478:0.125 496:0.010526315789473684 
0.01672724167230686 1.0 1.0 1.0 1.0 1.0 1.0 8:0.016129032258064516 9:0.004761904761904762 21:0.028409090909090908 24:0.0111731843575419 27:0.03773584905660377 28:0.13513513513513514 39:0.014925373134328358 40:0.005698005698005698 59:0.07547169811320754 61:0.01639344262295082 64:0.0036231884057971015 66:0.005952380952380952 68:0.06944444444444445 69:0.0125 72:0.008849557522123894 80:0.025423728813559324 92:0.07936507936507936 94:0.02564102564102564 123:0.02127659574468085 124:0.03225806451612903 130:0.015748031496062992 138:0.004975124378109453 147:0.05263157894736842 160:0.21794871794871795 177:0.027777777777777776 198:0.038461538461538464 199:0.07692307692307693 234:0.012048192771084338 310:0.05555555555555555 326:0.003683241252302026 365:0.06557377049180328 366:0.03125 378:0.0136986301369863 384:0.004132231404958678 402:0.0625 403:0.023255813953488372 404:0.008620689655172414 409:0.034653465346534656 413:0.021739130434782608 414:0.007633587786259542 417:0.009345794392523364 427:0.058823529411764705 455:0.09090909090909091 462:0.043478260869565216 469:0.043478260869565216 470:0.003968253968253968 471:0.14285714285714285 489:0.034482758620689655 
0.0 0.0 0.24737709975057715 0.0 0.0 0.0 0.0 2:0.003875968992248062 18:0.02040816326530612 21:0.005681818181818182 25:0.07777777777777778 31:0.03571428571428571 33:0.0594059405940594 36:0.06896551724137931 40:0.002849002849002849 45:0.06569343065693431 59:0.03773584905660377 63:0.09375 64:0.021739130434782608 66:0.03571428571428571 69:0.325 72:0.008849557522123894 79:0.022222222222222223 80:0.00847457627118644 94:0.02564102564102564 105:0.031818181818181815 107:0.14285714285714285 111:0.05357142857142857 119:0.014492753623188406 124:0.1935483870967742 137:0.009174311926605505 156:0.01444043321299639 164:0.02631578947368421 171:0.013605442176870748 172:0.03508771929824561 173:0.027777777777777776 183:0.1 194:0.02857142857142857 195:0.01932367149758454 198:0.038461538461538464 199:0.07692307692307693 205:0.08421052631578947 218:0.03125 221:0.024096385542168676 222:0.013452914798206279 234:0.012048192771084338 260:0.008695652173913044 261:0.03571428571428571 263:0.015873015873015872 271:0.03571428571428571 286:0.023255813953488372 299:0.08 301:0.16666666666666666 305:0.011494252873563218 318:0.1016949152542373 320:0.038461538461538464 322:0.09615384615384616 328:0.008547008547008548 339:0.06060606060606061 342:0.08333333333333333 343:0.020833333333333332 344:0.0273972602739726 350:0.125 355:0.00425531914893617 391:0.03389830508474576 399:0.03333333333333333 402:0.0625 403:0.023255813953488372 406:0.013157894736842105 409:0.0049504950495049506 413:0.021739130434782608 414:0.31297709923664124 416:0.29411764705882354 418:0.07142857142857142 422:0.019867549668874173 439:0.02564102564102564 445:0.16666666666666666 447:0.0625 455:0.09090909090909091 462:0.043478260869565216 471:0.14285714285714285 488:0.13445378151260504 496:0.008421052631578947 
0.0 0.0 0.0 0.0 0.41144603692387594 0.6695328411210293 0.0 36:0.1206896551724138 39:0.007462686567164179 40:0.002849002849002849 52:0.028169014084507043 63:0.03125 64:0.018115942028985508 66:0.03571428571428571 72:0.017699115044247787 79:0.005555555555555556 89:0.046511627906976744 94:0.10256410256410256 105:0.004545454545454545 124:0.03225806451612903 147:0.02631578947368421 155:0.02040816326530612 156:0.02888086642599278 173:0.027777777777777776 183:0.1 198:0.038461538461538464 199:0.07692307692307693 202:0.02 205:0.021052631578947368 206:0.07142857142857142 219:0.07936507936507936 240:0.09090909090909091 251:0.010256410256410256 257:0.391304347826087 263:0.010582010582010581 265:0.0136986301369863 271:0.03571428571428571 305:0.011494252873563218 306:0.016129032258064516 314:0.23809523809523808 321:0.023255813953488372 326:0.001841620626151013 327:0.06593406593406594 337:0.007751937984496124 342:0.08333333333333333 344:0.6301369863013698 355:0.01276595744680851 357:0.0392156862745098 402:0.0625 414:0.015267175572519083 416:0.07058823529411765 422:0.008278145695364239 445:0.16666666666666666 455:0.09090909090909091 462:0.043478260869565216 467:0.03333333333333333 471:0.14285714285714285 478:0.125 488:0.1092436974789916 496:0.01263157894736842 
1.0 1.0 0.0 0.0 1.0 1.0 0.15043882976752246 7:0.09090909090909091 23:0.04310344827586207 28:0.02702702702702703 36:0.017241379310344827 40:0.002849002849002849 43:0.05217391304347826 52:0.014084507042253521 54:0.00749063670411985 59:0.03773584905660377 64:0.018115942028985508 66:0.041666666666666664 67:0.07627118644067797 74:0.02857142857142857 79:0.005555555555555556 84:0.042105263157894736 89:0.06976744186046512 105:0.022727272727272728 107:0.14285714285714285 109:0.0053475935828877 111:0.03571428571428571 124:0.03225806451612903 129:0.06666666666666667 130:0.031496062992125984 156:0.021660649819494584 162:0.045454545454545456 183:0.1 195:0.03864734299516908 198:0.038461538461538464 216:0.1111111111111111 221:0.024096385542168676 237:0.044444444444444446 251:0.010256410256410256 252:0.02 260:0.008695652173913044 265:0.0136986301369863 271:0.03571428571428571 275:0.09195402298850575 292:0.03488372093023256 296:0.17391304347826086 305:0.022988505747126436 314:0.047619047619047616 322:0.019230769230769232 342:0.08333333333333333 344:0.0684931506849315 350:0.25 357:0.0196078431372549 391:0.01694915254237288 399:0.06666666666666667 409:0.0049504950495049506 413:0.06521739130434782 414:0.007633587786259542 416:0.03529411764705882 418:0.07142857142857142 444:0.037037037037037035 445:0.16666666666666666 455:0.09090909090909091 465:0.015625 477:0.06666666666666667 496:0.008421052631578947 
0.0 1.0 0.0 0.10747355840328335 1.0 1.0 0.0 27:0.03773584905660377 36:0.017241379310344827 39:0.007462686567164179 59:0.018867924528301886 69:0.025 79:0.03333333333333333 124:0.1935483870967742 151:0.011904761904761904 198:0.038461538461538464 239:0.05263157894736842 273:0.0784313725490196 299:0.06 360:0.015151515151515152 361:0.1935483870967742 363:0.003952569169960474 366:0.015625 414:0.015267175572519083 422:0.0033112582781456954 434:0.024390243902439025 455:0.09090909090909091 467:0.05 488:0.14285714285714285 
0.08028163567745686 0.0 0.0 0.0 0.0 0.0 0.0 2:0.007751937984496124 9:0.004761904761904762 18:0.02040816326530612 23:0.9913793103448276 28:0.32432432432432434 31:0.023809523809523808 34:0.14084507042253522 36:0.15517241379310345 40:0.005698005698005698 41:0.029850746268656716 42:0.015151515151515152 43:0.0782608695652174 45:0.021897810218978103 47:0.022727272727272728 48:0.02666666666666667 49:0.011904761904761904 52:0.028169014084507043 54:0.003745318352059925 55:0.058823529411764705 57:0.029197080291970802 59:0.018867924528301886 63:0.0625 64:0.018115942028985508 66:0.05952380952380952 67:0.1016949152542373 68:0.006944444444444444 69:0.0375 72:0.017699115044247787 74:0.09523809523809523 78:0.14285714285714285 79:0.005555555555555556 80:0.00847457627118644 84:0.10526315789473684 89:0.023255813953488372 94:0.10256410256410256 95:0.03333333333333333 105:0.05 111:0.5 119:0.21014492753623187 123:0.026595744680851064 124:0.12903225806451613 130:0.14173228346456693 137:0.009174311926605505 147:0.13157894736842105 151:0.05952380952380952 155:0.24489795918367346 156:0.05776173285198556 162:0.045454545454545456 183:0.1 198:0.038461538461538464 199:0.07692307692307693 201:0.011904761904761904 202:0.14 206:0.07142857142857142 211:0.011235955056179775 219:0.06349206349206349 221:0.060240963855421686 224:0.027777777777777776 226:0.037037037037037035 237:0.044444444444444446 251:0.020512820512820513 252:0.08 254:0.020833333333333332 257:0.34782608695652173 263:0.005291005291005291 265:0.0821917808219178 267:0.12903225806451613 271:0.03571428571428571 275:0.022988505747126436 276:0.004310344827586207 292:0.05813953488372093 296:0.08695652173913043 298:0.047619047619047616 305:0.011494252873563218 309:0.010526315789473684 314:0.047619047619047616 316:0.008130081300813009 322:0.019230769230769232 328:0.008547008547008548 337:0.031007751937984496 342:0.08333333333333333 343:0.020833333333333332 353:0.01639344262295082 361:0.03225806451612903 375:0.2 384:0.004132231404958678 391:0.03389830508474576 399:0.011111111111111112 402:0.1875 403:0.023255813953488372 408:0.04 409:0.01485148514851485 413:0.5 414:0.007633587786259542 416:0.058823529411764705 419:0.014084507042253521 422:0.004966887417218543 433:0.043478260869565216 434:0.24390243902439024 445:0.16666666666666666 447:0.0125 451:0.0625 453:0.023809523809523808 455:0.09090909090909091 462:0.043478260869565216 471:0.14285714285714285 472:0.1111111111111111 477:0.06666666666666667 488:0.7142857142857143 496:0.014736842105263158 
0.49815959048656017 0.0 0.0 0.0 0.0 0.0 0.0 7:0.045454545454545456 23:0.23275862068965517 31:0.011904761904761904 33:0.0297029702970297 34:0.14084507042253522 36:0.034482758620689655 39:0.007462686567164179 41:0.08955223880597014 42:0.03896103896103896 43:0.06956521739130435 45:0.043795620437956206 47:0.4318181818181818 48:0.013333333333333334 54:0.00749063670411985 57:0.029197080291970802 64:0.08695652173913043 66:0.06547619047619048 67:0.211864406779661 69:0.025 70:0.011627906976744186 72:0.07964601769911504 74:0.08571428571428572 78:0.07142857142857142 80:0.1440677966101695 84:0.010526315789473684 89:0.046511627906976744 94:0.02564102564102564 95:0.03333333333333333 105:0.01818181818181818 107:0.14285714285714285 111:0.21428571428571427 117:0.08571428571428572 119:0.13043478260869565 123:0.026595744680851064 124:0.06451612903225806 125:0.05263157894736842 133:0.043478260869565216 147:0.23684210526315788 151:0.011904761904761904 156:0.02888086642599278 183:0.1 198:0.038461538461538464 199:0.07692307692307693 201:0.011904761904761904 206:0.07142857142857142 216:0.1111111111111111 219:0.14285714285714285 221:0.060240963855421686 260:0.017391304347826087 263:0.1164021164021164 265:0.2054794520547945 271:0.03571428571428571 274:0.058823529411764705 292:0.023255813953488372 298:0.047619047619047616 305:0.011494252873563218 310:0.1111111111111111 314:0.047619047619047616 342:0.08333333333333333 350:0.25 357:0.0196078431372549 363:0.003952569169960474 391:0.05084745762711865 399:0.011111111111111112 402:0.125 403:0.023255813953488372 413:0.17391304347826086 414:0.022900763358778626 416:0.23529411764705882 422:0.004966887417218543 424:0.05309734513274336 437:0.07692307692307693 445:0.16666666666666666 447:0.05 455:0.09090909090909091 462:0.043478260869565216 465:0.015625 468:0.26143790849673204 471:0.14285714285714285 472:0.1111111111111111 488:0.226890756302521 496:0.014736842105263158 
0.0 0.0 0.0 0.0 0.0 0.0467316772519379 0.0 21:0.022727272727272728 28:0.1891891891891892 34:0.29577464788732394 36:0.4827586206896552 39:0.22388059701492538 40:0.02849002849002849 41:0.04477611940298507 57:0.0072992700729927005 63:0.03125 64:0.007246376811594203 66:0.017857142857142856 74:0.01904761904761905 78:0.07142857142857142 80:0.00847457627118644 92:0.047619047619047616 94:0.02564102564102564 95:0.03333333333333333 105:0.013636363636363636 111:0.017857142857142856 119:0.014492753623188406 124:0.06451612903225806 130:0.023622047244094488 140:0.013157894736842105 156:0.007220216606498195 171:0.013605442176870748 183:0.1 198:0.038461538461538464 199:0.07692307692307693 219:0.09523809523809523 222:0.03587443946188341 247:0.09375 251:0.015384615384615385 260:0.008695652173913044 263:0.07407407407407407 265:0.0136986301369863 271:0.03571428571428571 273:0.0196078431372549 299:0.02 305:0.011494252873563218 327:0.01098901098901099 337:0.023255813953488372 342:0.08333333333333333 344:0.0136986301369863 355:0.00851063829787234 361:0.03225806451612903 384:0.008264462809917356 396:0.01020408163265306 409:0.009900990099009901 413:0.021739130434782608 414:0.09923664122137404 416:0.2 420:0.024096385542168676 422:0.004966887417218543 424:0.02654867256637168 434:0.1951219512195122 445:0.16666666666666666 452:1.0 455:0.09090909090909091 462:0.043478260869565216 467:0.03333333333333333 470:0.003968253968253968 471:0.2857142857142857 472:0.1111111111111111 488:0.01680672268907563 495:0.023255813953488372 496:0.008421052631578947 
0.0 0.0 0.5011750302837955 0.0 0.0 0.0 0.0 16:0.038461538461538464 21:0.005681818181818182 23:0.017241379310344827 28:0.02702702702702703 31:0.08333333333333333 34:0.028169014084507043 36:0.13793103448275862 39:0.007462686567164179 40:0.005698005698005698 41:0.029850746268656716 45:0.0072992700729927005 47:0.11363636363636363 49:0.023809523809523808 52:0.028169014084507043 54:0.003745318352059925 55:0.026143790849673203 57:0.014598540145985401 59:0.018867924528301886 63:0.03125 64:0.0036231884057971015 66:0.017857142857142856 69:0.025 79:0.022222222222222223 89:0.046511627906976744 94:0.02564102564102564 105:0.03636363636363636 107:0.14285714285714285 111:0.03571428571428571 119:0.021739130434782608 124:0.1935483870967742 130:0.06299212598425197 139:0.034482758620689655 147:0.10526315789473684 151:0.023809523809523808 154:0.125 156:0.05776173285198556 160:0.01282051282051282 162:0.06818181818181818 172:0.017543859649122806 173:0.027777777777777776 177:0.027777777777777776 183:0.1 194:0.02857142857142857 195:0.014492753623188406 198:0.038461538461538464 199:0.07692307692307693 206:0.07142857142857142 213:0.05555555555555555 216:0.1111111111111111 219:0.015873015873015872 221:0.13253012048192772 222:0.008968609865470852 224:0.05555555555555555 227:0.006802721088435374 232:0.07692307692307693 235:0.02631578947368421 243:0.06666666666666667 251:0.010256410256410256 260:0.008695652173913044 262:0.00909090909090909 271:0.03571428571428571 273:0.0196078431372549 274:0.058823529411764705 290:0.011428571428571429 305:0.022988505747126436 308:0.03296703296703297 314:0.047619047619047616 316:0.008130081300813009 317:0.007575757575757576 318:0.01694915254237288 326:0.001841620626151013 328:0.06837606837606838 337:0.023255813953488372 339:0.06060606060606061 342:0.08333333333333333 357:0.0196078431372549 363:0.007905138339920948 365:0.13114754098360656 372:0.02127659574468085 391:0.03389830508474576 396:0.01020408163265306 399:0.011111111111111112 402:0.0625 408:0.04 409:0.0891089108910891 413:0.021739130434782608 414:0.022900763358778626 416:0.16470588235294117 417:0.009345794392523364 422:0.0033112582781456954 427:0.058823529411764705 434:0.07317073170731707 445:0.16666666666666666 447:0.05 455:0.09090909090909091 462:0.043478260869565216 470:0.003968253968253968 471:0.14285714285714285 480:0.023809523809523808 488:0.14285714285714285 495:0.023255813953488372 496:0.014736842105263158 
0.8776623026924305 0.0 0.0 0.0 0.0 0.0 0.0 4:0.08333333333333333 7:0.045454545454545456 9:0.009523809523809525 15:0.047619047619047616 25:0.022222222222222223 31:0.047619047619047616 33:0.0594059405940594 34:0.028169014084507043 36:0.15517241379310345 39:0.029850746268656716 40:0.002849002849002849 41:0.05970149253731343 42:0.010822510822510822 45:0.043795620437956206 47:0.06818181818181818 48:0.04 49:0.011904761904761904 52:0.014084507042253521 54:0.00749063670411985 55:0.013071895424836602 59:0.018867924528301886 64:0.028985507246376812 66:0.07142857142857142 67:0.16101694915254236 68:0.006944444444444444 69:0.25 70:0.06395348837209303 74:0.01904761904761905 80:0.00847457627118644 84:0.031578947368421054 89:0.023255813953488372 94:0.02564102564102564 105:0.05 107:0.14285714285714285 111:0.10714285714285714 116:0.047619047619047616 123:0.0425531914893617 124:0.25806451612903225 130:0.03937007874015748 133:0.043478260869565216 147:0.07894736842105263 156:0.039711191335740074 162:0.045454545454545456 172:0.03508771929824561 173:0.027777777777777776 183:0.1 195:0.004830917874396135 198:0.038461538461538464 199:0.07692307692307693 205:0.09473684210526316 206:0.14285714285714285 216:0.1111111111111111 219:0.031746031746031744 221:0.012048192771084338 222:0.004484304932735426 232:0.07692307692307693 235:0.02631578947368421 237:0.044444444444444446 251:0.010256410256410256 257:0.15217391304347827 260:0.043478260869565216 262:0.00909090909090909 265:0.0958904109589041 268:0.5 271:0.03571428571428571 282:0.007246376811594203 286:0.023255813953488372 292:0.09302325581395349 298:0.047619047619047616 303:0.041666666666666664 306:0.04838709677419355 314:0.19047619047619047 321:0.023255813953488372 328:0.05128205128205128 342:0.08333333333333333 344:0.0547945205479452 355:0.01276595744680851 372:0.2765957446808511 391:0.01694915254237288 392:0.011111111111111112 394:0.14285714285714285 396:0.01020408163265306 399:0.03333333333333333 402:0.0625 403:0.023255813953488372 409:0.019801980198019802 413:0.06521739130434782 414:0.022900763358778626 416:0.11764705882352941 418:0.07142857142857142 422:0.004966887417218543 424:0.10619469026548672 434:0.07317073170731707 445:0.16666666666666666 455:0.09090909090909091 462:0.043478260869565216 465:0.015625 468:0.006535947712418301 469:0.043478260869565216 471:0.2857142857142857 477:0.08888888888888889 478:0.125 479:0.9411764705882353 486:0.03333333333333333 488:0.025210084033613446 493:0.027777777777777776 496:0.004210526315789474 
0.008494173543019973 0.0 0.772115378681114 0.0 0.4269680355629576 0.9439357100957709 0.0 23:0.39655172413793105 28:0.21621621621621623 43:0.05217391304347826 54:0.011235955056179775 55:0.013071895424836602 56:0.013513513513513514 57:0.0364963503649635 58:0.08108108108108109 63:0.03125 64:0.036231884057971016 66:0.05952380952380952 67:0.025423728813559324 69:0.1625 72:0.09734513274336283 74:0.009523809523809525 79:0.016666666666666666 94:0.05128205128205128 105:0.022727272727272728 107:0.14285714285714285 111:0.10714285714285714 119:0.07246376811594203 123:0.005319148936170213 124:0.03225806451612903 130:0.007874015748031496 140:0.013157894736842105 147:0.02631578947368421 151:0.023809523809523808 154:0.041666666666666664 155:0.061224489795918366 156:0.01444043321299639 162:0.022727272727272728 183:0.1 195:0.00966183574879227 198:0.038461538461538464 199:0.07692307692307693 202:0.06 209:0.043478260869565216 216:0.1111111111111111 219:0.06349206349206349 221:0.14457831325301204 224:0.027777777777777776 227:0.013605442176870748 234:0.012048192771084338 237:0.022222222222222223 257:0.10869565217391304 260:0.017391304347826087 263:0.08465608465608465 265:0.0136986301369863 271:0.03571428571428571 288:0.04310344827586207 292:0.023255813953488372 297:0.0078125 338:0.1111111111111111 339:0.06060606060606061 342:0.08333333333333333 365:0.11475409836065574 391:0.05084745762711865 396:0.01020408163265306 399:0.044444444444444446 414:0.015267175572519083 416:0.08235294117647059 422:0.006622516556291391 424:0.008849557522123894 434:0.024390243902439025 445:0.16666666666666666 447:0.0625 455:0.09090909090909091 462:0.08695652173913043 469:0.021739130434782608 471:0.14285714285714285 488:0.10084033613445378 493:0.027777777777777776 496:0.002105263157894737 
0.0 1.0 0.0 0.00500503382522295 1.0 1.0 0.0 36:0.034482758620689655 41:0.014925373134328358 43:0.06086956521739131 64:0.007246376811594203 66:0.011904761904761904 78:0.07142857142857142 94:0.02564102564102564 124:0.03225806451612903 130:0.015748031496062992 156:0.018050541516245487 162:0.045454545454545456 183:0.1 188:0.012345679012345678 194:0.14285714285714285 198:0.038461538461538464 199:0.07692307692307693 222:0.004484304932735426 251:0.010256410256410256 271:0.03571428571428571 280:0.031914893617021274 305:0.011494252873563218 322:0.019230769230769232 342:0.08333333333333333 355:0.00425531914893617 361:0.03225806451612903 391:0.03389830508474576 402:0.0625 413:0.021739130434782608 414:0.007633587786259542 434:0.04878048780487805 445:0.16666666666666666 455:0.09090909090909091 462:0.043478260869565216 466:0.09090909090909091 471:0.14285714285714285 472:0.1111111111111111 483:0.05555555555555555 488:0.025210084033613446 495:0.023255813953488372 
0.013333705762738771 0.0 0.0 0.0 0.0 0.1969427346060871 0.0 16:0.15384615384615385 18:0.02040816326530612 28:0.16216216216216217 36:0.017241379310344827 42:0.0021645021645021645 64:0.010869565217391304 66:0.017857142857142856 67:0.1271186440677966 69:0.2625 72:0.1592920353982301 74:0.01904761904761905 89:0.023255813953488372 94:0.05128205128205128 105:0.01818181818181818 111:0.16071428571428573 119:0.10144927536231885 124:0.03225806451612903 130:0.007874015748031496 131:0.09523809523809523 151:0.011904761904761904 155:0.02040816326530612 156:0.02888086642599278 183:0.1 198:0.038461538461538464 199:0.07692307692307693 202:0.04 206:0.14285714285714285 219:0.38095238095238093 221:0.012048192771084338 222:0.004484304932735426 226:0.037037037037037035 232:0.07692307692307693 253:0.06666666666666667 260:0.008695652173913044 263:0.026455026455026454 264:0.002369668246445498 265:0.1232876712328767 271:0.03571428571428571 286:0.046511627906976744 292:0.011627906976744186 305:0.022988505747126436 308:0.18681318681318682 314:0.14285714285714285 328:0.13675213675213677 342:0.08333333333333333 361:0.0967741935483871 399:0.011111111111111112 402:0.0625 413:0.021739130434782608 414:0.04580152671755725 416:0.058823529411764705 445:0.16666666666666666 447:0.05 455:0.09090909090909091 462:0.043478260869565216 471:0.14285714285714285 478:0.125 
0.0 0.0 0.0 0.8182753960328112 0.0 0.0 0.0 94:0.02564102564102564 95:0.03333333333333333 116:0.047619047619047616 120:0.014492753623188406 198:0.038461538461538464 199:0.15384615384615385 205:0.010526315789473684 208:0.04395604395604396 224:0.027777777777777776 231:0.0070921985815602835 241:1.0 244:0.0196078431372549 247:0.03125 249:0.12272727272727273 263:0.010582010582010581 273:0.0196078431372549 286:0.023255813953488372 321:0.023255813953488372 355:0.01702127659574468 363:0.011857707509881422 379:0.014084507042253521 392:0.011111111111111112 394:0.14285714285714285 403:0.023255813953488372 408:0.04 409:0.009900990099009901 413:0.021739130434782608 422:0.0016556291390728477 434:0.024390243902439025 443:0.022222222222222223 447:0.0125 459:0.007575757575757576 462:0.08695652173913043 463:0.03125 471:0.14285714285714285 488:0.008403361344537815 
0.0 0.0 0.9501680617522359 0.0 0.0 0.0 0.0 2:0.003875968992248062 6:0.08695652173913043 8:0.03225806451612903 15:0.015873015873015872 28:0.05405405405405406 36:0.05172413793103448 39:0.022388059701492536 40:0.008547008547008548 78:0.07142857142857142 80:0.06779661016949153 94:0.02564102564102564 96:0.047619047619047616 105:0.00909090909090909 106:0.043478260869565216 119:0.021739130434782608 123:0.010638297872340425 143:1.0 151:0.07142857142857142 156:0.0036101083032490976 171:0.006802721088435374 179:0.03571428571428571 198:0.038461538461538464 199:0.07692307692307693 208:0.03296703296703297 210:0.019230769230769232 218:0.0625 219:0.07936507936507936 241:1.0 243:0.06666666666666667 249:0.06818181818181818 265:0.0684931506849315 268:0.5 271:0.03571428571428571 327:0.01098901098901099 328:0.05982905982905983 350:0.125 355:0.01702127659574468 371:0.25 379:0.014084507042253521 394:0.14285714285714285 403:0.023255813953488372 409:0.01485148514851485 414:0.007633587786259542 422:0.0033112582781456954 424:0.04424778761061947 429:0.07142857142857142 430:0.01652892561983471 434:0.04878048780487805 443:0.022222222222222223 445:0.16666666666666666 451:0.0625 453:0.007936507936507936 459:0.007575757575757576 462:0.043478260869565216 470:0.003968253968253968 480:0.017857142857142856 496:0.004210526315789474 
0.20166870873197262 0.0 0.0 0.0 0.0 0.0 0.0 16:0.19230769230769232 18:0.4489795918367347 36:0.017241379310344827 40:0.005698005698005698 42:0.0021645021645021645 47:0.022727272727272728 57:0.043795620437956206 66:0.005952380952380952 78:0.07142857142857142 86:0.2 94:0.02564102564102564 105:0.022727272727272728 111:0.017857142857142856 115:0.02857142857142857 119:0.07971014492753623 123:0.0851063829787234 130:0.031496062992125984 137:0.027522935779816515 140:0.039473684210526314 143:1.0 151:0.16666666666666666 155:0.04081632653061224 156:0.018050541516245487 162:0.06818181818181818 179:0.03571428571428571 180:0.125 198:0.038461538461538464 199:0.07692307692307693 200:0.06557377049180328 201:0.011904761904761904 202:0.16 209:0.43478260869565216 219:0.14285714285714285 237:0.08888888888888889 241:1.0 247:0.010416666666666666 251:0.005128205128205128 252:0.78 253:0.06666666666666667 257:0.021739130434782608 260:0.008695652173913044 263:0.026455026455026454 271:0.03571428571428571 275:0.022988505747126436 288:0.034482758620689655 292:0.11627906976744186 314:0.09523809523809523 337:0.015503875968992248 342:0.08333333333333333 343:0.16666666666666666 356:0.043478260869565216 367:0.014925373134328358 372:0.0425531914893617 379:0.014084507042253521 384:0.049586776859504134 391:0.03389830508474576 394:0.14285714285714285 402:0.0625 403:0.023255813953488372 407:0.6190476190476191 409:0.009900990099009901 413:0.043478260869565216 414:0.16030534351145037 416:0.058823529411764705 422:0.03642384105960265 424:0.10619469026548672 426:0.016260162601626018 429:0.07142857142857142 433:0.08695652173913043 439:0.02564102564102564 445:0.16666666666666666 462:0.043478260869565216 469:0.06521739130434782 472:0.1111111111111111 477:0.06666666666666667 478:0.125 493:0.027777777777777776 496:0.018947368421052633 498:0.012738853503184714 
0.927418176055147 0.0 0.0 0.0 0.0 0.0 0.0 9:0.004761904761904762 12:0.5 26:0.5 28:0.02702702702702703 36:0.034482758620689655 40:0.002849002849002849 42:0.004329004329004329 47:0.045454545454545456 54:0.003745318352059925 66:0.011904761904761904 73:0.017857142857142856 94:0.02564102564102564 105:0.013636363636363636 124:0.03225806451612903 130:0.015748031496062992 156:0.032490974729241874 162:0.022727272727272728 179:0.03571428571428571 185:0.15384615384615385 198:0.038461538461538464 199:0.07692307692307693 201:0.011904761904761904 202:0.06 237:0.022222222222222223 251:0.015384615384615385 260:0.008695652173913044 305:0.034482758620689655 322:0.019230769230769232 337:0.007751937984496124 357:0.0196078431372549 371:0.25 391:0.01694915254237288 394:0.14285714285714285 402:0.0625 414:0.007633587786259542 445:0.16666666666666666 462:0.043478260869565216 471:0.2857142857142857 477:0.022222222222222223 495:0.023255813953488372 496:0.014736842105263158 
0.0 1.0 0.0 0.6157672872749853 1.0 1.0 0.0 26:0.5 40:0.002849002849002849 54:0.003745318352059925 124:0.03225806451612903 198:0.038461538461538464 224:0.027777777777777776 322:0.019230769230769232 394:0.14285714285714285 471:0.14285714285714285 
0.0 0.0 1.0 0.0 0.0 0.0 0.0 12:0.5 26:0.5 36:0.017241379310344827 42:0.0021645021645021645 54:0.00749063670411985 79:0.011111111111111112 94:0.02564102564102564 105:0.022727272727272728 119:0.007246376811594203 124:0.03225806451612903 130:0.007874015748031496 156:0.036101083032490974 179:0.03571428571428571 198:0.038461538461538464 199:0.07692307692307693 222:0.017937219730941704 251:0.005128205128205128 305:0.022988505747126436 322:0.038461538461538464 371:0.25 379:0.014084507042253521 394:0.14285714285714285 396:0.01020408163265306 399:0.011111111111111112 402:0.0625 409:0.01485148514851485 434:0.024390243902439025 445:0.16666666666666666 462:0.043478260869565216 471:0.2857142857142857 496:0.002105263157894737 
0.0 0.0 1.0 0.0 0.0 0.0 0.0 12:0.5 26:0.5 36:0.017241379310344827 40:0.008547008547008548 54:0.011235955056179775 94:0.02564102564102564 105:0.01818181818181818 119:0.021739130434782608 124:0.03225806451612903 130:0.031496062992125984 147:0.02631578947368421 156:0.01444043321299639 162:0.022727272727272728 179:0.03571428571428571 198:0.038461538461538464 199:0.07692307692307693 222:0.004484304932735426 251:0.005128205128205128 322:0.019230769230769232 371:0.25 372:0.02127659574468085 394:0.14285714285714285 399:0.011111111111111112 445:0.16666666666666666 462:0.043478260869565216 471:0.2857142857142857 496:0.008421052631578947 
0.0 0.0 0.0 0.0 0.0 1.0 0.0 21:0.011363636363636364 26:0.5 40:0.002849002849002849 42:0.0021645021645021645 43:0.008695652173913044 54:0.003745318352059925 59:0.018867924528301886 92:0.015873015873015872 124:0.03225806451612903 130:0.015748031496062992 198:0.038461538461538464 222:0.008968609865470852 322:0.09615384615384616 327:0.01098901098901099 394:0.14285714285714285 409:0.0049504950495049506 414:0.007633587786259542 416:0.011764705882352941 471:0.14285714285714285 488:0.01680672268907563 
0.0 0.0 0.0 0.0 1.0 1.0 0.0 26:0.5 28:0.02702702702702703 54:0.003745318352059925 88:0.00980392156862745 124:0.06451612903225806 130:0.015748031496062992 198:0.038461538461538464 224:0.027777777777777776 363:0.003952569169960474 394:0.14285714285714285 414:0.007633587786259542 471:0.14285714285714285 
0.0 0.0 0.9079819104019705 0.0 0.0 0.0 0.0 9:0.04285714285714286 12:0.5 26:0.5 36:0.017241379310344827 40:0.005698005698005698 52:0.014084507042253521 54:0.003745318352059925 94:0.02564102564102564 105:0.01818181818181818 107:0.14285714285714285 123:0.05851063829787234 124:0.06451612903225806 130:0.007874015748031496 156:0.021660649819494584 179:0.03571428571428571 198:0.07692307692307693 199:0.07692307692307693 232:0.07692307692307693 237:0.022222222222222223 260:0.008695652173913044 305:0.034482758620689655 322:0.019230769230769232 371:0.25 372:0.10638297872340426 394:0.14285714285714285 399:0.03333333333333333 402:0.0625 409:0.0049504950495049506 445:0.16666666666666666 462:0.043478260869565216 471:0.2857142857142857 478:0.125 496:0.010526315789473684 
0.0 0.0 0.138664107480171 0.0 0.0 0.0 0.0 12:0.5 26:0.5 36:0.017241379310344827 40:0.008547008547008548 41:0.014925373134328358 42:0.0021645021645021645 43:0.008695652173913044 45:0.0072992700729927005 49:0.03571428571428571 52:0.014084507042253521 54:0.003745318352059925 55:0.0196078431372549 89:0.046511627906976744 94:0.02564102564102564 105:0.02727272727272727 107:0.14285714285714285 123:0.005319148936170213 124:0.03225806451612903 156:0.04332129963898917 162:0.045454545454545456 179:0.03571428571428571 198:0.038461538461538464 199:0.07692307692307693 224:0.027777777777777776 260:0.008695652173913044 305:0.022988505747126436 322:0.019230769230769232 337:0.031007751937984496 371:0.25 391:0.03389830508474576 394:0.14285714285714285 402:0.0625 437:0.07692307692307693 445:0.16666666666666666 462:0.043478260869565216 471:0.2857142857142857 472:0.1111111111111111 478:0.25 496:0.031578947368421054 
1.0 0.0 0.0 0.0 0.0 0.0 0.0 9:0.004761904761904762 12:0.5 26:0.5 28:0.02702702702702703 36:0.034482758620689655 40:0.002849002849002849 42:0.004329004329004329 47:0.045454545454545456 54:0.003745318352059925 66:0.011904761904761904 73:0.017857142857142856 94:0.02564102564102564 105:0.013636363636363636 124:0.03225806451612903 130:0.015748031496062992 156:0.032490974729241874 162:0.022727272727272728 179:0.03571428571428571 185:0.15384615384615385 198:0.038461538461538464 199:0.07692307692307693 201:0.011904761904761904 202:0.06 237:0.022222222222222223 251:0.015384615384615385 260:0.008695652173913044 305:0.034482758620689655 322:0.019230769230769232 337:0.007751937984496124 357:0.0196078431372549 371:0.25 391:0.01694915254237288 394:0.14285714285714285 402:0.0625 414:0.007633587786259542 445:0.16666666666666666 462:0.043478260869565216 471:0.2857142857142857 477:0.022222222222222223 495:0.023255813953488372 496:0.014736842105263158 
0.0 1.0 0.0 1.0 1.0 1.0 0.16204192678181392 26:0.5 40:0.002849002849002849 54:0.003745318352059925 124:0.03225806451612903 198:0.038461538461538464 224:0.027777777777777776 322:0.019230769230769232 394:0.14285714285714285 471:0.14285714285714285 
0.0 0.0 1.0 0.0 0.0 0.0 0.0 12:0.5 26:0.5 36:0.017241379310344827 42:0.0021645021645021645 54:0.00749063670411985 79:0.011111111111111112 94:0.02564102564102564 105:0.022727272727272728 119:0.007246376811594203 124:0.03225806451612903 130:0.007874015748031496 156:0.036101083032490974 179:0.03571428571428571 198:0.038461538461538464 199:0.07692307692307693 222:0.017937219730941704 251:0.005128205128205128 305:0.022988505747126436 322:0.038461538461538464 371:0.25 379:0.014084507042253521 394:0.14285714285714285 396:0.01020408163265306 399:0.011111111111111112 402:0.0625 409:0.01485148514851485 434:0.024390243902439025 445:0.16666666666666666 462:0.043478260869565216 471:0.2857142857142857 496:0.002105263157894737 
0.0 0.0 0.6203157214331727 0.0 0.0 0.0 0.0 12:0.5 21:0.005681818181818182 26:0.5 31:0.011904761904761904 36:0.05172413793103448 39:0.03731343283582089 40:0.014245014245014245 42:0.006493506493506494 47:0.045454545454545456 52:0.014084507042253521 54:0.00749063670411985 55:0.006535947712418301 57:0.029197080291970802 66:0.005952380952380952 69:0.0125 79:0.005555555555555556 89:0.023255813953488372 94:0.02564102564102564 105:0.05909090909090909 107:0.14285714285714285 124:0.06451612903225806 130:0.03937007874015748 156:0.04332129963898917 179:0.03571428571428571 198:0.07692307692307693 199:0.15384615384615385 251:0.005128205128205128 260:0.02608695652173913 265:0.0136986301369863 305:0.022988505747126436 322:0.019230769230769232 333:0.02702702702702703 337:0.031007751937984496 371:0.25 391:0.11864406779661017 394:0.14285714285714285 402:0.0625 414:0.007633587786259542 422:0.0033112582781456954 437:0.46153846153846156 445:0.16666666666666666 447:0.0125 462:0.043478260869565216 466:0.03636363636363636 471:0.42857142857142855 496:0.021052631578947368 
0.0 0.0 0.03391532101492187 0.0 0.0 0.0 0.0 12:0.5 26:0.5 36:0.017241379310344827 40:0.005698005698005698 42:0.0021645021645021645 52:0.014084507042253521 54:0.003745318352059925 55:0.0196078431372549 79:0.005555555555555556 94:0.02564102564102564 105:0.013636363636363636 107:0.2857142857142857 124:0.0967741935483871 130:0.007874015748031496 156:0.018050541516245487 179:0.03571428571428571 198:0.11538461538461539 199:0.15384615384615385 251:0.010256410256410256 260:0.008695652173913044 305:0.022988505747126436 322:0.019230769230769232 357:0.0196078431372549 371:0.25 391:0.01694915254237288 394:0.14285714285714285 399:0.011111111111111112 402:0.0625 414:0.05343511450381679 422:0.0016556291390728477 445:0.16666666666666666 462:0.043478260869565216 471:0.42857142857142855 472:0.1111111111111111 496:0.00631578947368421 
0.0 0.0 0.4156551174775251 0.21965280554055866 0.0 0.0 0.0 12:0.5 26:0.5 36:0.017241379310344827 40:0.008547008547008548 54:0.011235955056179775 94:0.02564102564102564 105:0.01818181818181818 119:0.021739130434782608 124:0.03225806451612903 130:0.031496062992125984 147:0.02631578947368421 156:0.01444043321299639 162:0.022727272727272728 179:0.03571428571428571 198:0.038461538461538464 199:0.07692307692307693 222:0.004484304932735426 251:0.005128205128205128 322:0.019230769230769232 371:0.25 372:0.02127659574468085 394:0.14285714285714285 399:0.011111111111111112 445:0.16666666666666666 462:0.043478260869565216 471:0.2857142857142857 496:0.008421052631578947 
0.0 0.5230043134345853 0.0 0.0 0.8235227818330979 1.0 0.0 21:0.011363636363636364 26:0.5 40:0.002849002849002849 42:0.0021645021645021645 43:0.008695652173913044 54:0.003745318352059925 59:0.018867924528301886 92:0.015873015873015872 124:0.03225806451612903 130:0.015748031496062992 198:0.038461538461538464 222:0.008968609865470852 322:0.09615384615384616 327:0.01098901098901099 394:0.14285714285714285 409:0.0049504950495049506 414:0.007633587786259542 416:0.011764705882352941 471:0.14285714285714285 488:0.01680672268907563 
0.0 0.0 0.07012221869981351 0.0 0.0 0.0 0.0 12:0.5 26:0.5 36:0.06896551724137931 39:0.007462686567164179 40:0.002849002849002849 42:0.0021645021645021645 47:0.022727272727272728 48:0.013333333333333334 54:0.003745318352059925 57:0.0072992700729927005 66:0.011904761904761904 73:0.03571428571428571 94:0.02564102564102564 105:0.013636363636363636 107:0.2857142857142857 124:0.03225806451612903 156:0.02888086642599278 179:0.03571428571428571 185:0.15384615384615385 198:0.038461538461538464 199:0.07692307692307693 216:0.1111111111111111 222:0.004484304932735426 232:0.07692307692307693 240:0.09090909090909091 251:0.005128205128205128 275:0.011494252873563218 322:0.019230769230769232 337:0.023255813953488372 371:0.25 391:0.03389830508474576 394:0.14285714285714285 402:0.0625 445:0.16666666666666666 462:0.043478260869565216 471:0.2857142857142857 472:0.1111111111111111 478:0.25 496:0.00631578947368421 
0.0 0.0 0.0 0.0 1.0 0.11783122086320641 0.0 26:0.5 28:0.02702702702702703 54:0.003745318352059925 88:0.00980392156862745 124:0.06451612903225806 130:0.015748031496062992 198:0.038461538461538464 224:0.027777777777777776 363:0.003952569169960474 394:0.14285714285714285 414:0.007633587786259542 471:0.14285714285714285 
0.17304930752531988 0.0 0.06345182367409034 0.0 0.0 0.0 0.0 12:0.5 26:0.5 36:0.034482758620689655 40:0.008547008547008548 42:0.0021645021645021645 47:0.022727272727272728 52:0.014084507042253521 54:0.003745318352059925 79:0.005555555555555556 89:0.023255813953488372 94:0.02564102564102564 105:0.04090909090909091 107:0.42857142857142855 111:0.017857142857142856 124:0.0967741935483871 130:0.015748031496062992 133:0.043478260869565216 156:0.039711191335740074 171:0.006802721088435374 179:0.03571428571428571 198:0.038461538461538464 199:0.15384615384615385 202:0.06 222:0.004484304932735426 251:0.015384615384615385 252:0.04 260:0.02608695652173913 291:0.23076923076923078 305:0.022988505747126436 322:0.019230769230769232 327:0.01098901098901099 367:0.014925373134328358 371:0.25 375:0.6 391:0.01694915254237288 394:0.14285714285714285 396:0.01020408163265306 399:0.03333333333333333 402:0.0625 409:0.009900990099009901 437:0.23076923076923078 445:0.16666666666666666 462:0.043478260869565216 471:0.42857142857142855 472:0.3333333333333333 496:0.010526315789473684 
0.0 0.0 0.05592161216478411 0.0 0.0 0.0 0.0 12:0.5 18:0.04081632653061224 31:0.023809523809523808 58:0.02702702702702703 64:0.007246376811594203 67:0.01694915254237288 69:0.0375 78:0.14285714285714285 80:0.00847457627118644 85:0.02 94:0.02564102564102564 105:0.02727272727272727 111:0.05357142857142857 119:0.007246376811594203 130:0.023622047244094488 134:0.08695652173913043 143:1.0 156:0.010830324909747292 179:0.03571428571428571 194:0.9428571428571428 195:0.028985507246376812 198:0.038461538461538464 218:0.03125 222:0.004484304932735426 249:0.00909090909090909 263:0.026455026455026454 265:0.0136986301369863 305:0.011494252873563218 314:0.047619047619047616 332:1.0 342:0.08333333333333333 344:0.0136986301369863 391:0.03389830508474576 393:1.0 399:0.022222222222222223 403:0.06976744186046512 413:0.10869565217391304 416:0.047058823529411764 447:0.0125 470:0.015873015873015872 488:0.01680672268907563 496:0.004210526315789474 
0.31698639432114506 0.0 0.0 0.0 0.0 0.0 0.0 12:0.5 16:0.07692307692307693 18:0.16326530612244897 31:0.011904761904761904 33:0.0891089108910891 36:0.034482758620689655 40:0.002849002849002849 43:0.008695652173913044 57:0.0072992700729927005 59:0.03773584905660377 68:0.013888888888888888 78:0.07142857142857142 80:0.211864406779661 94:0.05128205128205128 105:0.03636363636363636 117:0.2714285714285714 119:0.4492753623188406 123:0.0851063829787234 124:0.03225806451612903 130:0.3228346456692913 134:0.08695652173913043 140:0.11842105263157894 143:1.0 151:0.03571428571428571 155:0.5918367346938775 156:0.02527075812274368 179:0.03571428571428571 180:0.125 202:0.12 209:0.34782608695652173 212:0.006172839506172839 221:0.012048192771084338 224:0.3055555555555556 226:0.037037037037037035 227:0.006802721088435374 237:0.28888888888888886 247:0.010416666666666666 251:0.010256410256410256 253:0.13333333333333333 260:0.02608695652173913 261:0.008928571428571428 263:1.0 273:0.0392156862745098 288:0.008620689655172414 296:0.17391304347826086 305:0.034482758620689655 309:0.021052631578947368 314:0.09523809523809523 322:0.6730769230769231 326:0.001841620626151013 327:0.01098901098901099 332:1.0 342:0.08333333333333333 355:0.00425531914893617 356:1.0 369:0.02127659574468085 377:0.04 382:0.07272727272727272 393:1.0 399:0.022222222222222223 401:0.01639344262295082 402:0.1875 403:0.09302325581395349 409:0.034653465346534656 411:0.013157894736842105 414:0.06870229007633588 416:0.25882352941176473 426:0.008130081300813009 440:0.02631578947368421 471:0.14285714285714285 477:0.06666666666666667 496:0.004210526315789474 
0.671921819178425 0.0 0.7179681496106325 0.0 0.0 0.0 0.0 21:0.005681818181818182 23:0.05172413793103448 31:0.11904761904761904 34:0.014084507042253521 36:0.15517241379310345 41:0.5223880597014925 42:0.0021645021645021645 43:0.008695652173913044 47:0.11363636363636363 48:0.013333333333333334 49:0.03571428571428571 55:0.006535947712418301 57:0.0072992700729927005 59:0.03773584905660377 64:0.014492753623188406 66:0.06547619047619048 69:0.2 78:0.07142857142857142 84:0.05263157894736842 94:0.23076923076923078 105:0.00909090909090909 107:0.14285714285714285 124:0.03225806451612903 130:0.03937007874015748 147:0.05263157894736842 155:0.02040816326530612 156:0.032490974729241874 172:0.03508771929824561 183:0.1 194:0.2571428571428571 195:0.04830917874396135 198:0.038461538461538464 199:0.07692307692307693 201:0.011904761904761904 219:0.1746031746031746 221:0.060240963855421686 251:0.005128205128205128 260:0.008695652173913044 261:0.008928571428571428 263:0.015873015873015872 271:0.03571428571428571 305:0.034482758620689655 314:0.09523809523809523 327:0.01098901098901099 328:0.017094017094017096 337:0.03875968992248062 339:0.06060606060606061 342:0.08333333333333333 350:0.125 361:0.06451612903225806 399:0.022222222222222223 401:0.01639344262295082 402:0.0625 413:0.043478260869565216 414:0.022900763358778626 416:0.18823529411764706 445:0.16666666666666666 455:0.09090909090909091 462:0.043478260869565216 471:0.14285714285714285 472:0.1111111111111111 488:0.13445378151260504 493:0.027777777777777776 495:0.06976744186046512 496:0.004210526315789474 
0.0 0.40431141330044446 0.0 0.39533568752574394 1.0 1.0 0.0 27:0.22641509433962265 33:0.009900990099009901 52:0.014084507042253521 58:0.10810810810810811 64:0.0036231884057971015 66:0.005952380952380952 79:0.016666666666666666 93:0.08333333333333333 95:0.03333333333333333 119:0.007246376811594203 124:0.16129032258064516 151:0.03571428571428571 154:0.041666666666666664 171:0.061224489795918366 172:0.03508771929824561 177:0.05555555555555555 198:0.038461538461538464 202:0.02 208:0.01098901098901099 219:0.015873015873015872 222:0.004484304932735426 234:0.024096385542168676 248:0.07692307692307693 273:0.0784313725490196 275:0.011494252873563218 299:0.04 318:0.01694915254237288 322:0.15384615384615385 352:0.005376344086021506 353:0.01639344262295082 355:0.00425531914893617 360:0.045454545454545456 361:0.532258064516129 366:0.09375 369:0.02127659574468085 372:0.02127659574468085 388:0.027777777777777776 424:0.008849557522123894 434:0.07317073170731707 447:0.0125 451:0.0625 455:0.09090909090909091 467:0.1 488:0.15966386554621848 489:0.034482758620689655 
0.0 0.0 0.0 0.0 1.0 1.0 0.0 18:0.32653061224489793 28:0.05405405405405406 36:0.06896551724137931 48:0.02666666666666667 64:0.0036231884057971015 66:0.011904761904761904 78:0.07142857142857142 79:0.016666666666666666 80:0.03389830508474576 91:0.04 94:0.05128205128205128 100:0.013513513513513514 105:0.02727272727272727 107:0.14285714285714285 110:0.008928571428571428 111:0.017857142857142856 124:0.03225806451612903 130:0.007874015748031496 151:0.011904761904761904 155:0.02040816326530612 156:0.021660649819494584 172:0.017543859649122806 183:0.1 195:0.014492753623188406 198:0.038461538461538464 199:0.07692307692307693 205:0.06315789473684211 222:0.004484304932735426 260:0.008695652173913044 261:0.125 264:0.002369668246445498 265:0.0273972602739726 271:0.03571428571428571 273:0.0392156862745098 282:0.014492753623188406 305:0.034482758620689655 317:0.015151515151515152 327:0.13186813186813187 342:0.08333333333333333 344:0.0410958904109589 369:0.02127659574468085 399:0.011111111111111112 402:0.0625 403:0.023255813953488372 414:0.05343511450381679 416:0.047058823529411764 422:0.0016556291390728477 434:0.14634146341463414 445:0.16666666666666666 455:0.09090909090909091 462:0.043478260869565216 467:0.03333333333333333 471:0.14285714285714285 480:0.011904761904761904 488:0.19327731092436976 495:0.046511627906976744 496:0.008421052631578947 
0.0 0.0 0.0974277197941448 0.0 0.0 0.0 0.0 7:0.045454545454545456 36:0.22413793103448276 39:0.007462686567164179 43:0.008695652173913044 45:0.014598540145985401 47:0.022727272727272728 48:0.36 49:0.011904761904761904 63:0.125 64:0.007246376811594203 66:0.011904761904761904 72:0.07079646017699115 80:0.025423728813559324 88:0.00980392156862745 92:0.015873015873015872 94:0.05128205128205128 103:0.8557692307692307 105:0.01818181818181818 107:0.2857142857142857 110:0.03571428571428571 119:0.06521739130434782 124:0.03225806451612903 130:0.007874015748031496 156:0.036101083032490974 162:0.022727272727272728 173:0.1111111111111111 183:0.1 198:0.038461538461538464 199:0.07692307692307693 201:0.023809523809523808 205:0.3368421052631579 219:0.015873015873015872 221:0.024096385542168676 224:0.05555555555555555 244:0.0196078431372549 247:0.020833333333333332 251:0.005128205128205128 255:0.047619047619047616 261:0.008928571428571428 263:0.026455026455026454 265:0.1917808219178082 271:0.03571428571428571 305:0.034482758620689655 314:0.09523809523809523 328:0.02564102564102564 335:0.09090909090909091 337:0.015503875968992248 342:0.08333333333333333 344:0.0136986301369863 355:0.01276595744680851 357:0.0196078431372549 391:0.03389830508474576 399:0.03333333333333333 401:0.01639344262295082 402:0.0625 409:0.0049504950495049506 414:0.022900763358778626 416:0.21176470588235294 422:0.009933774834437087 434:0.17073170731707318 445:0.16666666666666666 455:0.09090909090909091 462:0.043478260869565216 467:0.11666666666666667 470:0.011904761904761904 471:0.14285714285714285 488:0.2605042016806723 493:0.027777777777777776 495:0.023255813953488372 496:0.01263157894736842 
